solver_type L2R_LR
nr_class 2
label -1 1
nr_feature 41733
bias -1
w
3.915954678369584 
0.06777648397844414 
2.0672466273921 
-0.08255309394367677 
0.6276762250932914 
3.819151778761083 
0.1784739106385307 
1.275315168868846 
0.5822395715171594 
1.413357964948238 
0.05245955238714556 
0.1174113506384604 
0.05245955238714556 
2.818642159251301 
0.2098773399538608 
0.1795454823176859 
0.1396359510641568 
0.8958416277198723 
0.6372888170446944 
7.07589141822162 
1.248459860826767 
1.051329572637834 
4.820190243386251 
3.069637936729608 
2.135589250229368 
0.003412729120779636 
0.287843309056753 
0.1128088536322952 
4.447875226515187 
0.2988710095374497 
2.294306013058854 
2.805554593932582 
4.387825265183368 
0.1897107526340243 
0.02259651263766846 
0.02259651263766846 
2.374866005374443 
3.667918454465795 
0.07320471493835769 
0.07320471493835769 
0.9270785435349574 
2.27488125433843 
1.013558467060829 
0.4015047086329571 
0.08720543054198725 
0.0418073815549859 
0.3164598786549514 
2.502968789813647 
2.476851284660273 
0.06402048395362769 
3.358837212856455 
0.05956216327441872 
6.646193782512325 
0.1130117544087031 
0.6855742540033907 
1.687938308193095 
2.085117263731274 
0.7593337707803879 
1.773300917917694 
1.149005031395921 
0.08859914319995145 
2.105957659731515 
1.642673612958191 
1.768368307081876 
3.08398710897058 
0.05194009199826091 
0.8540558312421339 
1.460784200351696 
4.546502148586529 
2.006996889492237 
1.41404898203908 
0.02649276762412856 
0.1467775961535926 
0.7812712042217435 
0.3255747598316351 
1.458099716505653 
1.461028416939141 
1.806716148049821 
0.896239261107062 
3.979865498627238 
0.3312267234456667 
3.914696440931246 
0.5678158453290064 
2.581603548159037 
0.3363820823134728 
2.863281737480183 
0.1247748923277712 
0.2414594070453696 
6.213574611799011 
0.3238495854795779 
1.73620984381865 
0.6434400402861641 
0.7819164188852972 
2.686996341489978 
1.004476612937853 
1.727769093676633 
2.466346068571159 
0.0162264593054333 
3.679531486440648 
0.01991953366258335 
0.1005869508025719 
2.41437954987311 
3.84182855201794 
1.923066335486957 
1.415278537556142 
0.8761706278081839 
0.4874735389915625 
0.1452504183979196 
0.1452504183979196 
1.45973831508645 
0.5343439665265939 
2.489455303705443 
0.4653374079935371 
0.5546192783536777 
0.00476479273918964 
2.153647354195473 
6.910757295781109 
0.2698231789901394 
1.812035542643414 
3.312738702143513 
0.005031885028608704 
1.140882165038664 
0.5123072343605349 
2.627344956456346 
0.07235442753636011 
0.1801747443505985 
0.1432567670782482 
0.1826785631888471 
0.9039262458355595 
2.126417084071178 
3.32479620600559 
2.597992721200793 
0.01491684653063902 
0.726407395785312 
3.803352204346762 
2.801552698232297 
0.7491139107806972 
1.097120678151527 
1.608647641966097 
2.156543147154371 
0.07547978797808497 
0.07547978797808497 
0.07547978797808497 
1.682890547869433 
1.552144617059559 
0.02599400712936307 
4.558051408143337 
1.336581245817172 
0.2950713823074139 
0.6444635758591504 
0.02252490070002756 
4.053688259326181 
1.393789300461841 
0.4943403440509668 
0.4583097615818572 
0.1906958390602254 
-0.3365331477889118 
0.4732774850921906 
0.01566502080125083 
5.72408869543562 
0.04051044592461747 
3.487273210842374 
0.01199641658725447 
2.740912444222616 
1.803991199116946 
1.220646296657343 
1.089361763968543 
1.192984187275772 
0.359268048391644 
0.09660231651117361 
1.192229486866867 
1.393164741729581 
5.090858571708744 
0.001574776158886948 
-1.087801385823991 
2.746979514057099 
2.229577418545355 
0.2758468564702719 
0.2758468564702719 
2.688782033612813 
0.1075763594125953 
0.8717900693432791 
0.3458651015440004 
0.2416841273326037 
0.1852876713609177 
1.006406374502392 
0.2372097577585403 
0.217757786533487 
1.188640190704631 
1.489194581950902 
1.56535255104544 
-0.3361300659853096 
0.4182610202250822 
0.09795689386039015 
-0.3991347011418474 
2.627138862400563 
0.3232702163271696 
0.2843271796861991 
2.830192427503422 
0.0171975325822427 
0.6622950841796125 
3.619786424416735 
0.41092263269793 
0.9751782994310427 
4.316051909083948 
0.6565765810695635 
0.2316261162429245 
1.827931760831896 
2.786026367313388 
0.2287096598411772 
0.09002470931208953 
1.515187883533942 
0.8932389426364713 
3.020209369448533 
1.526912903099432 
0.1694070800135087 
0.1694070800135087 
0.1694070800135087 
0.1694070800135087 
0.1694070800135087 
1.848352436928349 
1.402871097810863 
6.736360981950758 
0.244083827087463 
3.026672375466813 
1.736983033010012 
0.01867952865711417 
2.628230125542464 
0.01867952865711417 
0.1591602837713183 
0.211133286086163 
1.52841849518651 
0.6882065182652319 
2.994192165918342 
0.5070840381354561 
1.771186624204131 
0.1047123384871873 
0.6167444182214338 
0.7561405663178388 
0.04256011008725007 
2.02219496188932 
1.279362974257711 
5.088212887707752 
-0.2007275921102576 
1.604834794206522 
0.2779054698705613 
3.28289268556789 
0.05124212818350785 
3.04320411720073 
1.891758905523133 
0.04571659867121126 
2.114737328700638 
2.186660810250684 
0.2197560012557893 
1.114254134409197 
1.549317102469029 
1.208779445978519 
-0.0460688876568111 
1.804118430657823 
2.679750636940208 
0.5500476870299572 
0.04070848848749763 
0.2370647750726194 
-0.1325480478245823 
4.276062143089099 
0.1098112158631402 
2.197752167888701 
1.611377847894302 
0.6051833197695695 
0.171977205746095 
1.909519088445547 
0.2183594948160896 
0.02856272886214405 
0.612425817096019 
0.07892765559043925 
1.270014401042074 
1.775296351309939 
0.2512135959405848 
1.555630735552211 
0.1343195882182491 
0.0433814579972253 
0.9397457837185518 
1.021772051808775 
0.8437176534625964 
2.747423824447993 
2.6630353874028 
0.02263268562825254 
0.1416492187559832 
1.448137560198818 
0.257154372375777 
2.866721519989515 
3.355542130770787 
3.746112056069299 
0.1381102856971269 
2.041080223815892 
0.7966386608267524 
0.08680598544829952 
5.040731366235599 
2.313255052538668 
-0.3906897732586178 
2.434695450328159 
0.8290471145228361 
0.01005499502765031 
0.05261382173492016 
0.673481217938153 
-0.3615443182547902 
0.4358913782373183 
0.584766702519084 
0.1265480803782462 
0.5996864698850856 
1.395589837291567 
0.1059854281794132 
0.4692098452644632 
0.6807424654921135 
2.808051815848927 
0.01332851818295469 
0.110310687953001 
1.445843158459205 
-0.6437792990328597 
2.59491044146308 
0.2454121279877274 
-0.1573583705816363 
0.2912777697011728 
0.008720973658566717 
0.6854683045823673 
1.753986193059526 
0.1088995611112638 
0.1143240436214953 
1.127072828926686 
1.127072828926686 
1.374427436907108 
2.923900348903557 
0.4442460255782686 
1.308378398535384 
1.22555651583036 
0.1121343083461605 
-0.7175937786880946 
1.193775791575184 
1.47280367983817 
0.1948361864280284 
1.772321873931052 
-1.564168124672368 
1.731184007134381 
1.885728392704535 
0.7722109635947421 
0.4925517074486605 
1.136927759205026 
4.008690613200483 
1.382409594334227 
0.1075504944113142 
1.05214642083428 
0.2144909323804031 
1.191278924050649 
1.818818038001783 
4.323801965151352 
0.9144023040484132 
0.4058795565629709 
4.092547522933227 
0.03516767251483253 
3.127378436587422 
2.015277160892415 
1.714023929251734 
1.479808465319496 
0.3982507328903132 
0.9093281014240202 
2.613690366041388 
0.06944648436083692 
0.06944648436083692 
0.3375647097452418 
0.2153958399488569 
2.439936614912567 
0.0272313695111901 
2.687123635202428 
1.088674476652614 
1.504928970315844 
-0.03601877291642911 
-0.7349949993661015 
0.6568176504898859 
1.870066329562605 
0.162931860269846 
1.000107173419665 
1.268730195813272 
0.3012544761572836 
4.255939273550302 
2.873903355508553 
0.1336685027671317 
0.06945237658350784 
0.4786829118590009 
0.006521537578750957 
0.9337422660179081 
1.130877258226186 
0.917065688986152 
1.196161694647908 
0.4269480774113917 
0.4291003919477288 
0.07931532535353265 
1.164234784965408 
2.980450483159232 
0.1031778801963737 
2.501925690792505 
0.2668122025604618 
0.6883793276850158 
0.1351028181019399 
1.099835728746243 
3.722606930605033 
0.6467712625574005 
0.02396323990016305 
0.4268290385229183 
0.4661625776459724 
1.404516890628347 
1.212530777238584 
-0.02348886224607222 
0.7388323338291377 
3.220418258564483 
3.028064297247551 
1.811962427332812 
0.3399865338069859 
-0.4249683169671638 
0.7782724543304352 
0.201517523694961 
1.239632399492319 
-1.396605932348707 
0.9919965112628732 
1.762607266010005 
0.1272034673361107 
-1.637129130927858 
1.771987419752939 
0.02332735220216331 
-1.067383905131262 
0.02034778553800511 
0.4785446485640213 
1.366460004473946 
0.7159270275593265 
0.003658021944897403 
0.1612831843682767 
3.658021363191721 
0.6081355078938555 
3.167016935270465 
0.003442531290582881 
3.259722255685584 
3.442303262971334 
1.28477376776499 
3.028473149341181 
0.03475149839366831 
1.921638165133076 
0.2070716318416319 
0.9318067063008033 
1.424937556240608 
0.2689593059998912 
0.3277921473607492 
2.754854793364717 
2.096076689974618 
0.8467166256040638 
0.2986102237133407 
3.604400090663622 
2.560619370816981 
1.223044345960489 
2.48332606272784 
3.763261363368395 
2.279326188776843 
0.6575155123566642 
0.7599372153017788 
0.02145174994786629 
0.08800878667765763 
0.7161396602141856 
2.09809097107013 
1.330613264827834 
1.096844486919376 
2.191982642638711 
1.774910023703287 
1.635930383257016 
0.5539983493978508 
0.1146775027913773 
0.1387173892826525 
1.674063920963359 
3.828021791460264 
1.435141382078934 
1.214117057401478 
0.3408325291458936 
0.4510732882030479 
0.003228103509590863 
0.8005075298747989 
1.118660190386373 
1.635427957182152 
0.1551689006875312 
-1.279388007114165 
0.7611994343098331 
3.503142624090438 
2.026247031091525 
1.870666276808481 
0.794471273781343 
0.2816593017709059 
0.9199992038839598 
2.191860172952154 
0.5206386429492124 
0.586767713425597 
0.8817886763577455 
1.43743777161947 
1.900461708356031 
1.836814481863088 
0.04715421502188931 
0.4631081625483269 
0.02269860565327482 
0.9103578549509533 
0.6674649874387286 
0.05739972543238273 
1.076154839155381 
2.062870803244879 
0.6317602353741519 
2.577170481662495 
0.316165217146833 
0.7984845869902158 
4.709402705356543 
1.020188785414127 
0.2025043551176996 
0.6748326255289887 
2.137100409970409 
0.4321451835552106 
0.03231642169691749 
2.756833220998269 
0.1050402611193474 
0.07844680059305539 
1.600096621005815 
0.936114929072497 
3.421746234305739 
1.594847871563163 
0.2845213867997827 
0.3474020658753292 
0.4375727175475765 
0.8026675116634622 
0.2578434770116386 
2.24695285525255 
2.31649810824622 
1.249383953461473 
1.032467514116312 
2.064854455677979 
0.04395889205570971 
0.4012766254772406 
2.468258589810941 
0.04395889205570971 
0.4108296577694285 
0.1956457493974354 
0.3948366010761679 
1.151698286841701 
0.5590432957885868 
-0.0582607106513334 
1.010695562763685 
1.038580924354454 
0.1343651955088518 
0.5683879383980144 
0.8516809678676371 
0.8076167684823816 
-0.01165243432511144 
1.619565928553221 
2.434903799683193 
1.010972008369362 
0.4580371378506427 
0.6907408803196268 
1.253815990704853 
0.03590663463123524 
0.1446779534809118 
0.07763183653768677 
-3.396035807369686 
0.02051448437732978 
1.455008968537634 
0.4293168273422539 
0.3052978273879941 
0.3297825761103387 
0.3340555560831738 
0.6052969801915481 
0.02660348544037246 
0.3864672451414273 
0.6294514058978026 
0.4010241856355339 
1.958727619912367 
1.305100986677663 
2.024396950544836 
1.324136084431389 
-0.1529887513692603 
0.8239301325284607 
3.083222083153196 
0.1998369580447947 
3.915083356921179 
2.186972946557797 
-0.2674281274915156 
0.01044026819487872 
0.3289020826923059 
1.022043946720582 
0.641362855142788 
2.231223969603795 
-0.2806641979182602 
2.493154203374464 
-0.458683299263489 
0.1944383618721227 
0.4378827876154177 
0.431148989593309 
1.367729479358547 
1.874707265032824 
0.07263000975894451 
1.408610538997109 
0.07263000975894451 
0.07263000975894451 
2.096080390519088 
0.08559591709429301 
0.8694786304939647 
3.031342553038871 
1.942524477745406 
0.5514923931577551 
0.6786057189292737 
4.173487456702418 
1.591847586747072 
-0.4874177184629832 
0.1507605672155467 
0.6351505031551765 
0.9725041455617169 
3.731127146074163 
1.512814406827304 
0.5126918216337359 
0.2483357974444357 
0.7088495652768299 
0.5381434701808205 
1.334371452306808 
-0.2077432011409391 
2.657056021666268 
0.5169339931568913 
0.02203134434084594 
0.4149074543418088 
0.2732065771622486 
0.8572195317469301 
0.06488279684987712 
0.3142440736637086 
0.2507371913321741 
0.08882237259725004 
0.5571720292572253 
0.02941687721111957 
0.02941687721111957 
0.02941687721111957 
-0.07131519425111865 
0.02941687721111957 
0.02941687721111957 
3.897239727214627 
2.514693196871652 
2.964931230877478 
0.208138521993358 
1.288920391039989 
1.669503607568126 
0.7975896761477432 
0.01171869681190294 
1.856619698137763 
0.2564385283618975 
1.196570485282873 
2.381273837568141 
1.319167046789625 
0.07005885568666759 
0.9090655173971222 
0.910847768285532 
0.7809735104055717 
1.461231844320633 
0.1579908756451626 
0.5878065493979455 
2.382209311186154 
1.511752065959638 
-0.1834515306659465 
0.3036147434299755 
0.3036147434299755 
1.492324785914317 
1.136465815084403 
0.003583180837704646 
0.3536093008541449 
0.6362609055695414 
0.09691841851616498 
1.658343319400989 
0.3287891422836066 
0.2098178937237364 
0.3858584685131062 
0.03089931388281233 
0.7101942265694977 
0.07629948192836279 
0.7419902702673169 
2.217413936433159 
0.4180254134304875 
-0.01457684391320175 
0.9357387219894026 
1.023324198683375 
2.54383267785526 
-0.3396385931395299 
2.3380952478102 
1.898625206898113 
1.571765340001923 
0.7469029275671221 
0.5431848662889232 
0.7654116291738672 
1.664674768903135 
0.598818612815175 
2.543952895143891 
-0.07991162674118681 
0.1005816845356208 
0.1005816845356208 
0.4641848849321032 
1.761415159522408 
1.323338967254688 
-0.0002619632785372736 
-0.04363584246554893 
0.06191462126022487 
0.08048898151356759 
2.674572885872436 
0.5675815433442811 
0.2767968871984067 
-0.655766118571703 
0.1437330825812196 
1.576284201957421 
-0.01691263473383947 
1.472996156633502 
2.989716218208717 
0.9868893541425536 
1.314765206229062 
2.118015542586449 
-2.349257655567154 
-0.283198657530012 
1.63012224545707 
0.06538446429760472 
1.692250882959305 
1.30848581641837 
0.8152676501941866 
0.3672407735340448 
2.249465192434549 
0.09771519144235839 
0.7546295100719521 
0.2187033891047072 
0.2187033891047072 
0.2187033891047072 
0.6123216047098363 
0.4400273022838118 
0.1836960730007484 
0.971070885176871 
0.2718627673364422 
0.2149528518074952 
0.2149528518074952 
1.225849503849639 
0.1851271833424992 
0.0006222727318222611 
2.478877933741674 
2.586777892115872 
0.1180548981660961 
0.8001669895715815 
0.1129223726467496 
0.8789073208730248 
0.5028179999517123 
0.0600037865529303 
1.188529490029918 
-0.9370191845396676 
0.2734480400558581 
-0.2129366709849003 
-4.37629257300124 
1.961985238983435 
0.1374552769030672 
1.281254485918471 
0.2056862148380424 
2.643766470746427 
0.2543581854309647 
0.1059375125675744 
-0.9527964807976391 
0.1874969305082232 
0.07844148933227538 
0.9311361811780998 
0.1386776572587375 
3.061076132607746 
0.02270739787849711 
0.02270739787849711 
0.02270739787849711 
-0.1175126942841351 
3.005134508918739 
1.30375262489859 
0.4805248884531944 
0.342754196080586 
2.477924306555278 
0.8108674325509897 
2.211227836571018 
0.002750948158695245 
0.1730395618595597 
0.1102320837943511 
1.398531796759919 
0.88071140727375 
0.8525290073411491 
0.5465575088150741 
0.6476254168801443 
0.3268388445618487 
1.042897349503124 
0.08318264750302147 
-1.273795651538091 
0.8660098007013325 
1.582921347281837 
0.01727972742319865 
1.665998732999482 
1.033175600139151 
0.6330481081696788 
0.05708042534795995 
1.148990311448536 
0.2796748496282634 
0.01289467093231565 
1.71946932294019 
1.663970432106844 
2.166203791182881 
2.044131319706035 
0.05902646292474181 
1.520892041169756 
0.1023560331601681 
0.656064662422045 
1.428984812078653 
0.8128560677368111 
0.3304634692897657 
0.02504707963056443 
-1.027220622865832 
1.770621608008114 
2.802065508916885 
0.7486105131712754 
0.3037736702773391 
0.1389165276393712 
0.6737234876229389 
0.01304983908299455 
0.01304983908299455 
1.833085152220574 
0.391004578041646 
0.2015030747833546 
4.520899481953186 
1.022984772641367 
0.02326841362399386 
1.282168572009035 
0.4531431699077522 
0.5539103710361657 
2.058108573963095 
0.2582568623297576 
0.9342772170443602 
0.990091687420682 
0.6879033777045517 
1.600319464628286 
1.547061745425359 
1.126932283669072 
0.8632895642378922 
1.195994937372378 
0.8625334528420669 
0.007565630182195763 
0.8830262806624797 
0.9658470038350391 
0.652352373499884 
1.478592453727905 
0.169618957383936 
0.3688368507221066 
1.228498241063497 
0.7952767663121261 
0.0760986413290663 
-1.427302925180806 
1.344499821140337 
0.414870962882659 
-0.7121355871927552 
1.164748643820705 
0.1471423465557406 
0.4630859570710665 
0.3473651357987724 
0.6815691502089211 
1.055677803597729 
0.2762702553915238 
2.802547979522429 
0.04758277943530963 
0.2485784797812592 
2.721627618194177 
1.012158613249563 
0.6571067603122712 
0.02677272279571559 
-0.5332505178407819 
0.1367006656245305 
2.814443276493906 
0.0711156765835016 
0.4939842738613717 
0.1611959808398022 
1.491166969703915 
1.206992540047589 
1.47791004116934 
0.09826870010703534 
-0.1642166746308057 
0.3315696544697657 
0.1885025762561951 
1.305360063157687 
0.8156468266021788 
1.14641543853312 
2.248458937078667 
0.821701735522068 
1.646489127641596 
1.006862290188033 
-0.460413111277009 
1.226646958220563 
2.047522064045922 
0.005193053526471294 
2.974761198934009 
0.5801160069986832 
1.286582974615575 
1.109179917563522 
0.09562433391464663 
-0.8140631651320723 
0.9768893893948399 
2.045441726121187 
2.130605542211103 
0.6107611916532861 
-5.882761782333371 
0.1250689197254916 
0.1250689197254916 
0.1250689197254916 
0.1250689197254916 
1.390942262344644 
-2.268966756122512 
0.8569974762770585 
-0.6368536250450969 
-0.5842459016871316 
1.984092866231044 
0.1399043679456607 
1.824171455215654 
3.136006216208751 
-0.7509853881575385 
0.6330521122709408 
0.3187554571765241 
0.1904090538106947 
0.539525155965886 
0.3227984169917716 
0.07401940515634352 
0.07401940515634352 
2.282166243996618 
1.070214218520355 
0.01065840591477381 
0.6426125571497134 
1.167692057957492 
-0.3516014004921 
0.9010400350982171 
1.260631130756198 
0.5914447108191218 
0.5245047960775905 
0.2095488039047513 
0.1431748974326003 
0.1431748974326003 
0.1431748974326003 
0.1431748974326003 
0.1431748974326003 
0.1431748974326003 
0.1431748974326003 
-0.1587726101204769 
1.023068446248958 
0.7314048255692348 
0.01073262662507688 
-1.554846066306728 
0.2744212028602162 
0.410503159540973 
1.479745164832391 
3.164316488907178 
1.102387177483951 
0.1746615221703156 
0.006266854995787926 
1.679076505620263 
0.0114325049459266 
1.44709206060639 
0.6884400459445316 
0.29584821045596 
1.106738894206545 
0.01578308479293803 
0.2594284543880608 
2.131455775319455 
0.9313427092629386 
0.174321144440731 
0.1920390801768239 
0.7181621550521892 
0.5617660681067354 
0.06666419230992807 
0.09159936690237851 
0.09159936690237851 
0.3012692746486497 
0.2756199129337706 
2.742868126564532 
0.03846078774461052 
2.840659886210954 
0.9883469066415989 
0.99304422442408 
0.07550784544976388 
0.09396448511294693 
0.4721174378161396 
2.758815475744164 
0.2453374793264127 
0.2758947911584821 
1.662469683367374 
2.426967340532475 
2.306049350922968 
0.01273356213877614 
3.079544806489927 
1.172088215384621 
0.4565901400663034 
0.1160489315407925 
0.9486090718381341 
0.8191393201375449 
0.2966133618312118 
0.05941233504618378 
0.05941233504618378 
0.2838839767015912 
3.529990796722951 
0.1241711558927526 
1.865054399916431 
0.2956895332326934 
0.5544575446657434 
0.4448168998149239 
0.3265813116976421 
0.1544431372595586 
0.6615177249142611 
0.008539357452273216 
0.4767407894672396 
0.126590575795383 
1.675344047665979 
0.126590575795383 
0.1394591566354122 
0.2622421601774848 
0.1315621334202179 
0.4775136994030501 
0.1965168414048706 
0.3340412023843684 
-0.3724309074943383 
2.088717671206133 
0.3052150590856962 
2.463980175755087 
0.02376658870002778 
0.4752718703908753 
0.01980670010497497 
2.363147621146329 
0.2407547857461327 
1.782208729764303 
0.003969458123971573 
0.4936591475578574 
1.45499324269316 
0.9660901914332257 
2.135904879225875 
0.001737150569162974 
2.205033231709846 
0.3970571712907474 
0.1656767407940404 
0.1656767407940404 
0.5314391041503385 
2.411999311511673 
2.045711763912379 
0.142407414855509 
0.142407414855509 
0.3216200083764942 
1.030919218586579 
0.8410699749779172 
-0.03494808286411334 
0.2919098955789686 
-2.042702796807379 
0.3367435333462388 
0.001505735434784073 
1.501860491064041 
0.02864635373751682 
0.6816890155854984 
1.798873422331317 
1.536275578926658 
0.05799516842141477 
0.05739491933966927 
0.1636656905348371 
-0.1947711434925423 
2.252898521943986 
0.4108776206745229 
4.08438327213941 
1.86509195730693 
0.7268274256232187 
0.2170137915679582 
0.1880424763827283 
0.7853034739471447 
0.1980419861328108 
0.9840385249418373 
0.3526730331212688 
0.3284796141850536 
1.468419092983175 
0.8110004749138094 
0.2486660982747706 
1.241998983630119 
0.07850259528049029 
1.912543667972732 
0.2171648739147423 
1.543375711968331 
2.726498812523578 
0.1904076315194197 
0.8833107262761464 
0.4289295530986831 
1.140444833620777 
0.4719012512853029 
1.956016906932797 
3.389678574775221 
1.011784394321725 
1.148911491753151 
0.3748412973491869 
0.7232318863259798 
-0.6377428113764987 
1.365694503353885 
1.105820450717426 
0.02481304027702479 
0.1476862161124931 
0.5799053222012888 
1.024137657388635 
0.8473313921981562 
0.2315523841177778 
0.2156846681225563 
0.1232574162455627 
1.433629852246623 
1.84705445314811 
0.2821937119032366 
0.006080731862565649 
-0.5840161020669468 
1.447226022448536 
0.1610170608711884 
1.625697646936844 
1.647964224559064 
0.09244016260241276 
0.3052825575645912 
1.783271117422822 
0.1260354531744601 
0.4087072741751219 
-2.081546242508905 
0.5286146383013455 
0.1762048794337818 
0.1762048794337818 
0.1762048794337818 
2.005575873840453 
1.647030578550694 
0.5422529249202263 
0.08306831757034899 
0.4170207116851785 
0.2600274034746387 
0.02349164266093822 
0.01945362642356845 
1.332377620920463 
1.497936688876399 
0.2018718589471155 
0.4293584410796127 
0.1205152477668251 
0.5126536258349659 
0.6058219138959354 
0.6859011092274764 
2.027431476023655 
2.134881646054923 
1.472284491080076 
0.008513436928977802 
1.574816901040536 
1.477137979773333 
0.1099685217182468 
0.821605517509907 
0.9892563370378951 
0.08457323422372333 
1.083308099466507 
0.08457323422372333 
1.328966369910754 
0.6886617516792799 
-2.025582185617275 
2.456191922850769 
0.06773941844553114 
0.5496261820033289 
0.2004973490438779 
0.3825107005689968 
0.07938946645655999 
1.071540723522598 
0.1694070800135087 
0.1694070800135087 
0.1694070800135087 
0.1694070800135087 
0.1694070800135087 
1.660783580562506 
0.1231168492604324 
-0.8055364195488236 
0.02307653659861847 
0.5928150628638413 
0.4314845194927521 
0.1829739442339363 
0.3272803995295359 
0.936259586109195 
0.2990093477425778 
0.02992908971188803 
0.02992908971188803 
2.490780486852286 
2.311319691745124 
1.036782946741814 
2.469605709104902 
0.1864251617780178 
0.09622392436744698 
1.036029634530391 
0.8722100651399648 
0.1364871633009268 
0.961155388954242 
0.2077213381803671 
0.06874148824427655 
1.749269071419563 
0.06549127976411367 
0.9898186488125611 
0.06549127976411367 
0.2524274287402448 
1.280223109522566 
1.091493808609774 
0.05735757389091078 
0.6227126684350173 
1.386424773061927 
2.151608054907769 
0.07325008638452717 
0.07325008638452717 
1.399910114323096 
2.92823136145967 
1.528686522249583 
1.127090901219308 
0.009715768352469989 
0.01505915310441072 
0.03987317624642857 
1.833289054608955 
0.304735009961514 
0.4553487400128555 
0.426221997966792 
0.0189818924741424 
1.632041561250314 
2.643444582557764 
0.4451758017620004 
3.146744195173207 
1.864845619513528 
0.375703698816524 
0.01226881770019008 
0.01226881770019008 
-0.4935166429033027 
0.02869721812741854 
0.01286375483159044 
0.7711566958966655 
0.7146057557190191 
0.8435410789654195 
0.01731309823452393 
1.636726582452861 
0.07158929830914021 
2.284537298969507 
0.02594882347059486 
1.114551311122018 
0.07158929830914021 
0.2851499589155828 
0.1750677515922728 
-0.9163651799816411 
0.1750677515922728 
0.7781369298370848 
1.893520424247517 
1.003015853363074 
0.1630461067252214 
0.1731288414547754 
0.372255744304938 
0.2266570729808532 
0.3259427632346347 
0.84683392608345 
1.158372305280071 
0.4148287762091591 
0.3102876046402933 
0.03261471020515447 
1.226615086253337 
0.05205374191423087 
0.2179011030974702 
1.520880120075709 
-0.9803192599781856 
3.911107211335039 
0.9838850662244724 
0.02735618363676671 
-0.8199637109486352 
1.951349060290077 
0.02353586253370528 
2.965702027292012 
2.985594222961903 
0.02353586253370528 
0.7037264024293612 
0.2806115932944698 
0.353040338727883 
1.452724854391261 
0.05367001075735182 
0.6140816253753766 
0.1062655344161583 
0.05574172806155196 
0.2187033891047072 
0.2187033891047072 
0.2187033891047072 
-0.1410774122662061 
0.8534735670452258 
3.068329002923708 
0.6767888704584545 
0.7300365783224447 
0.01163288138898835 
0.55014044594645 
0.4577616148693618 
2.305933544354613 
0.03563890855773651 
-0.02386967306373178 
0.485720709341366 
1.236729454731839 
1.874875608293643 
0.6633331364850653 
1.270170503763577 
0.3340585836900495 
1.616422833296059 
0.1236732997879622 
0.3571353480098206 
0.1463264550797439 
1.143596292060424 
0.9621738596810672 
1.059474341206457 
0.01497427433212258 
0.03606938184063582 
0.08737678709835744 
0.09540079893965428 
1.271663790905128 
1.551515987070444 
0.003081483682369381 
0.002414664287003186 
0.002414664287003186 
0.6531773133784613 
1.491181765552816 
0.1929153248760122 
0.03008125583935137 
0.07404193975787726 
0.2520840850469691 
2.142225574553162 
3.242565288053842 
-0.6158196331201419 
1.15841677909688 
0.442596990631527 
0.05204977493883788 
0.591260669999722 
0.1327852847382725 
0.1860213812482294 
0.1491241338652139 
0.0246980469036071 
0.7349915687068654 
0.6294938451909777 
0.05139493116656647 
2.07690812702173 
0.1291029178446617 
0.2582329009830017 
2.536734502434129 
-1.009024179997012 
0.160688385662 
0.5640717201011708 
0.9623120834117546 
0.9304812482055325 
0.009997734898830074 
0.02269601071247746 
1.093578430540755 
0.258979876692661 
0.1243719798164168 
0.1243719798164168 
0.4157964785807655 
-1.044179394736269 
1.220892279017159 
0.5397913156520147 
-0.03022939979202374 
0.8648985639372236 
0.01395433836393131 
0.07976115888655479 
2.833942369265794 
0.4572294696305372 
0.1882099687311008 
1.0380908987567 
0.196486727069507 
1.921108902877911 
0.3292072818286437 
0.01672148706025087 
0.7273803535037074 
0.474609761520119 
0.4889353794157406 
-0.2767425950866992 
1.157100786971502 
0.2024071834041957 
1.518357975817883 
0.1120606676371916 
0.09848572331831587 
-0.11090048903076 
0.5465161804743155 
-0.6837078235690573 
1.556024347478101 
0.1346215892405432 
0.08096977289037478 
0.1602862308497539 
1.081901060767464 
0.2376176902828812 
1.547481075574915 
0.09928569025378152 
0.02978557449636106 
0.02104620559581592 
1.477242248647041 
0.4190893773145433 
2.334956214621453 
0.213108640219019 
0.967659094668547 
0.01273356213877614 
0.2626132307605763 
0.5062967319362063 
0.1925266573523821 
0.4677341837841889 
0.002927687715696957 
0.4509064561293142 
0.3353098845300991 
0.5077336363340932 
0.2875458534264728 
0.6876318924783451 
0.5648195468222862 
1.785487937124504 
0.122063931967499 
-1.640672754726935 
0.8328989591119162 
0.776639723120166 
0.2771947039155002 
0.4526717610250684 
0.01612288217579861 
0.237623518079972 
0.8248940225582727 
2.35532179025331 
0.2425185050438992 
1.9032625255654 
0.2152311148250518 
0.2669833485383164 
-0.7885871077231252 
-0.4621733787262602 
-0.08888204122134138 
0.3459448018566207 
0.5262227964470902 
1.639211901091333 
0.1190542182795828 
0.3210015143077574 
0.5948878602447009 
0.4558122291723632 
0.264849616571678 
0.2784136054379383 
2.690488002045698 
0.06168715214569376 
0.4079377597651505 
0.122410489931792 
0.4233030389786672 
-0.9199786665023598 
0.1394884393873947 
2.414871216469821 
0.1507095824086718 
0.1006952153771768 
0.4580045360020338 
0.02663213476545745 
0.1042662755006237 
1.507110146029125 
1.566990192943596 
-0.2418289046265653 
-0.6433310998105072 
1.558908451689057 
0.1739237116266602 
0.3935931018551541 
0.07852176766825045 
0.08222466916496741 
0.07414382622382169 
3.183689250764299 
0.003827761283340636 
0.008560536341915862 
0.06615779589196458 
1.317546466350095 
0.1220879715784008 
2.121574892123085 
0.7038564082047812 
0.2962809809855447 
1.670324164336739 
1.824017301429846 
-0.5149612432412169 
0.01081354533845031 
0.02046655222157988 
0.2271551477608982 
0.1174809648573711 
1.048943680623141 
0.7196209979207243 
1.006227796846291 
0.006718291645798864 
0.2280616472117258 
2.215662067274893 
2.691151577840399 
3.29847258094998 
0.3758884848263391 
0.4658928000706061 
1.447459662865886 
3.152813680125036 
0.03937371400334112 
0.03937371400334112 
0.2700577413293309 
0.6104969969043762 
0.001355210434428633 
0.02030308976991784 
0.1604793396844471 
0.8374879894275612 
0.5857996274612858 
0.8745380063181473 
0.08892458668891222 
0.8982710825794107 
0.9057215782114262 
0.4943614229240937 
-0.09817975265373781 
2.119680550903414 
0.05696897311420971 
0.05696897311420971 
0.178111540822199 
0.7201781933364539 
0.9289132976412461 
0.1826196002415978 
0.6528336615738032 
0.2187033891047072 
0.2187033891047072 
0.2187033891047072 
0.2769354640859095 
0.7797853474022521 
0.2577948829057572 
-0.6020785885981504 
0.5939043214673572 
0.3840026565613381 
0.8551764313382295 
0.6100507204663737 
0.9398352363761306 
0.5521212156162459 
0.1244680527476992 
0.1244680527476992 
0.3350463968751927 
1.297649395632297 
0.1593372239961133 
0.7508766420253289 
0.4510466742105996 
1.04026539969689 
0.4525900723491941 
1.523823099350838 
0.5063647975356412 
-0.1878549040392807 
2.309618983032525 
0.08762081771792518 
-0.2227527410236678 
0.7982428953822639 
0.4759250865103017 
0.2187033891047072 
0.2187033891047072 
0.2187033891047072 
1.202359609074141 
0.04059019803220346 
0.6180818550383895 
2.30569219724132 
0.9784888855367322 
2.785140612380927 
0.09292897373038618 
1.150767870334219 
0.2830582973964865 
0.2830582973964865 
0.1057033595706522 
0.1639281691155566 
-0.428298659454691 
2.515543001849134 
0.396809863228019 
0.5149174779238511 
0.1331525039555217 
0.2745215593766585 
0.3231557860952703 
0.3078791304829192 
2.088139619343259 
0.1113628230035672 
0.6427079014242415 
0.4592428936532858 
0.0509766116696127 
0.1193491930753513 
1.016781421958041 
0.2358868108514856 
0.003848846541138162 
0.009117919876353549 
1.449342812467293 
0.05893084962650146 
0.8470970655356156 
0.1548239478562462 
0.307147470921177 
0.1548239478562462 
0.3098386149997353 
0.2136308546006433 
0.2136308546006433 
-0.3167495272647872 
0.9667872534378863 
0.06268129523894873 
0.2971528951483954 
0.2272516057725683 
0.3174524157966211 
0.1432693779667783 
1.377840124274889 
0.00466726145973945 
0.3639788108976171 
0.5881634890496278 
1.861993984137777 
0.02568426429166737 
0.5348711933140017 
0.03756559922012331 
0.1033986698771229 
0.1716285864852213 
0.1258801536606725 
0.3582527034618073 
1.485833388722373 
0.1344633450455416 
-2.099888804021206 
-0.189550024016832 
2.024427929842542 
-0.1516535701377094 
0.008461802467518527 
0.569807010134306 
0.4250346271878143 
0.4121883438465156 
0.1078190566789082 
0.04175969056979149 
0.1896712404679313 
0.5093319217766222 
0.06423572687640192 
0.6368375294032198 
0.09772269696820779 
0.5535581111151268 
0.8016296130847376 
0.3566512920129469 
-0.8996418426676428 
0.1525736651885402 
0.1498215939120814 
1.10973587086731 
0.06869664556641296 
0.07755085566942993 
0.06869664556641296 
2.10248107573227 
0.4426259671983541 
0.6054187102354355 
0.6052329096016597 
0.1869361489761311 
0.1834942667752109 
1.118425742132073 
0.5547782974013391 
0.9227975655982622 
1.091098427276016 
0.1163879899231589 
0.4635346693367188 
0.05432319426058922 
0.4121205466770105 
0.6652589266117693 
0.2593122048554907 
0.1240189364869404 
0.1240189364869404 
0.9332707962924214 
0.9803375966492652 
1.672637525155331 
-0.4254715755124343 
1.299727369207333 
0.0967891892584527 
0.005558749175767519 
0.4717432009195786 
1.83863819836533 
0.06385526418376788 
0.4263791168118778 
1.108476385157244 
0.1634394657582509 
0.1919314770693305 
-0.135875745254445 
0.7288769422683861 
0.8751025517990548 
1.475216894512556 
1.167892196000611 
1.003048846583651 
1.063055892636377 
0.1338067973815104 
0.00265645245409846 
0.8043893929308344 
1.197786617566941 
0.2333288291134748 
-0.3531759637980729 
0.4079379001625549 
2.143763116323307 
0.1975764910044621 
0.2718030274259589 
0.5130881534416031 
0.855156857887087 
0.09697988362240556 
0.09423213515602878 
0.177733820345206 
0.3092252432472136 
1.90021475413551 
0.1165537245030878 
-0.4422471040152094 
2.590212299403301 
0.2917879135311503 
0.008296833311191614 
0.08451519247544712 
0.1215802367566591 
0.04322134361307677 
0.3316537917154054 
2.193160840990464 
0.6253888502624034 
-0.9572341973142704 
0.9085379625822381 
0.8681141259841394 
0.3901296633487729 
-2.754117068232546 
0.06148217849598012 
0.06148217849598012 
0.2436999048519019 
0.06148217849598012 
0.2103556386394253 
1.448115692095827 
0.4783562510791726 
-0.7832372230455127 
0.5826781974889871 
0.5273853784366481 
0.7830605110696761 
0.6060849387574542 
0.4304296529861499 
0.04106416859965788 
0.04106416859965788 
0.06401401113884629 
0.03850880442439379 
0.6882720472080446 
1.533776238242598 
0.7068491071521616 
0.6855891620453264 
2.07972679362806 
0.5833475469051963 
0.07151045526158596 
0.0584530072658096 
0.05807283161244956 
-1.464020715769651 
0.02156147013458021 
0.02156147013458021 
0.02156147013458021 
1.28056804914223 
0.1292034662239837 
0.4017147016636604 
0.9585873295577957 
0.1754816567949348 
0.2634928801013063 
0.2024203038273867 
0.4535323068569263 
0.02524925443292223 
0.02524925443292223 
0.02524925443292223 
0.05708605572309323 
0.1451773656874678 
0.5589504508796724 
1.53192114123278 
0.02409893862131221 
0.5009537886604168 
0.006656756696611157 
1.22443743100623 
1.007292117960897 
0.5828025572265216 
0.1933790118094446 
0.1097380369772983 
0.5676593648366827 
1.468196419974282 
-0.8396844472390418 
0.7792432297501598 
-0.3296142153316891 
0.7466363380743017 
1.177593449252547 
0.0007516033255260076 
0.05164140627629913 
0.05164140627629913 
0.2666613894082422 
0.1542806564673028 
0.1542806564673028 
0.08676475371085252 
0.9970266181639271 
2.847977662710838 
0.1102455239389813 
-0.6679488038642341 
0.9910726916933108 
1.964060550520018 
0.1184660248464921 
0.4125781599300146 
0.01061887699842971 
-0.4913347582605291 
0.7292922249917219 
0.9753974902222006 
0.02556002566394304 
1.643262073305111 
0.006969476794454018 
1.742352586933911 
0.006969476794454018 
0.01760598424457201 
0.4022333535942598 
0.2520608487522147 
0.1782677056060937 
0.1852084015886526 
0.2039913911263087 
0.4824688426373301 
0.2039913911263087 
0.1251353039300015 
1.051334452103251 
0.2343216948921799 
0.9771601916377073 
0.0331695645427091 
0.4835687665140732 
0.2652263302127123 
0.01845493068020738 
0.1569087721873753 
0.05442339459337589 
0.8012078473671375 
1.47190292072739 
1.664827307479749 
0.08012925057626645 
0.2327407827358647 
0.2676082549577233 
2.118813433977415 
2.458425031183974 
-0.7479651767662451 
0.06637863970699849 
1.61746840866214 
0.475075159098481 
-1.16248404995652 
0.1585791531614121 
0.005807615416508908 
2.270002675012502 
0.2611845508082344 
-0.4276321713622958 
0.393444348703596 
1.247965040419247 
0.6167242681751369 
0.6654340574598701 
1.546700847947316 
0.2423508202785716 
0.06798232024199848 
0.1058575164916534 
0.5513840621486406 
0.5057702300523849 
0.7187481628623879 
0.1008625455960879 
0.1894027529456322 
0.1894027529456322 
0.1894027529456322 
0.1894027529456322 
0.2063206687773862 
0.4435216364511848 
0.6132905047551032 
0.8643085753532509 
1.54901614172606 
-0.7131531831743743 
-1.721814410235471 
0.3740960457971349 
0.05161587613340076 
1.614609842747728 
-0.08470798277218311 
0.6325972586694336 
0.249420690538336 
0.02999223715043634 
0.02999223715043634 
0.1109436988262122 
0.0492649069310122 
0.1363981711646388 
1.227478514131038 
0.1259279772880519 
0.02519855058640439 
0.02519855058640439 
1.20305249712181 
0.02519855058640439 
0.1385034267890586 
0.1385034267890586 
0.1385034267890586 
0.1385034267890586 
0.1385034267890586 
0.1385034267890586 
0.6518901391176751 
1.288359788111368 
1.057679469379481 
2.90550045180981 
0.5153802974053366 
1.267232915381882 
1.181883722229511 
0.4354230536673852 
0.4354230536673852 
0.8479112647942881 
0.2070784038637431 
0.5264530823207705 
-0.2374866225216835 
0.4745032552605228 
0.5703609366486629 
0.7001108433565485 
0.533448133243038 
0.01863557994788826 
0.7117122487368338 
0.5386200421996699 
0.07541615909617687 
2.081760056127793 
0.2146390740915773 
0.2146390740915773 
0.290419399576068 
0.02861735771034129 
0.7890145602834447 
0.624874840420114 
0.1297018895595363 
0.9027186845004097 
0.2131375580256493 
2.609711069535962 
0.2426024408228002 
0.7214907593908073 
0.03262995077565275 
-0.4328681684128471 
0.03686708551114341 
1.442176356414503 
0.05879928258069253 
0.3828390756577993 
1.834942839543419 
0.04797324966099777 
0.972777138081155 
0.02009382454893469 
0.2894253440957076 
0.301383382489598 
0.8563514630364872 
0.4016617686973846 
0.109776350134081 
0.3509216198156324 
0.3232233375411657 
0.4049310809363784 
0.7440165237185761 
0.1374244906000986 
1.755410052144437 
0.9826353141294889 
0.3054978899508586 
-0.0125972808438945 
2.154308499326882 
1.196615189960051 
-1.477270692440144 
-0.4562382331739116 
0.3784808006401328 
0.3314638869558306 
0.5405673178929221 
0.09222652264351354 
1.098453121708131 
0.2454886904775723 
0.5476715038364722 
0.2361278943029621 
0.06207185660019699 
0.4017050820922423 
0.3158156187436997 
1.852826041294205 
-0.4128208238351845 
0.267856000242145 
0.267856000242145 
0.1749640924641258 
0.1749640924641258 
0.978743692124989 
0.1801442342643514 
0.1801442342643514 
0.1870831647530393 
1.290006874846356 
1.062446267717395 
2.441486959837251 
0.02458200082148445 
0.519254919551525 
0.2522668709643779 
0.1415388922107018 
1.138527729741885 
0.8168025512425351 
0.1313802427565057 
0.03969156502304041 
0.2116827768395868 
0.9692895331661655 
1.846396752449695 
0.6527256982919515 
0.009881186509300697 
0.6585653164337898 
0.2243982243438614 
0.2243982243438614 
0.09509982029386017 
0.9898764663380708 
1.612434732086752 
0.1741704938617462 
0.2418370580391335 
0.1055252670063389 
0.1219325108878333 
2.173637423917706 
0.1318204057442019 
1.124682388536014 
0.3299891783855535 
0.3894237001402248 
0.01251609455161424 
0.01038858564254454 
1.419065559971546 
0.2135828499713202 
2.181533001611607 
0.02754349003865555 
0.4543417956093861 
0.1615066539347488 
1.000463775772669 
0.00311173463953147 
0.1615066539347488 
0.0594927017706286 
2.179492009891455 
0.07410704201816248 
1.367945956397523 
0.9318583588261387 
0.7335422326300671 
0.2154229557367018 
0.9605383143270398 
0.03915773325357734 
-0.5945068992503589 
0.07529712634645092 
1.472719991171276 
0.08983089914313543 
0.8888204745861831 
1.409957787384135 
0.267314762523275 
2.127118659836515 
0.6826982365589478 
2.284226854770806 
0.1823984992969687 
1.559230575293018 
0.9444331241526386 
0.6674206796558426 
1.362494543875074 
1.184958250863777 
0.243929043045011 
0.4336475989569781 
0.06354688057196474 
0.267856000242145 
0.267856000242145 
0.02675886339787846 
0.02675886339787846 
0.684442648942544 
1.131797895712091 
0.1501859307924219 
1.225931706860726 
0.1123725812745866 
0.4522094526191134 
0.151596567690323 
0.7241596210458605 
2.326732490985187 
0.5852012083846696 
0.2416751398531468 
0.4362328569764978 
0.3210633935988979 
0.005929005430278289 
0.265266727797518 
0.5090652997007789 
2.061458042492038 
0.2262245658423475 
0.5857256478522923 
1.04822374011307 
0.03367223265616394 
0.7277760008573627 
0.2291836600830549 
0.4631467030333025 
1.465978066710031 
0.7415873059254031 
0.1015734433193002 
3.444569938351037 
0.0570057401485919 
0.1959072602565895 
0.8343594361718518 
0.7266935572081509 
0.6261620741578021 
0.4136145121203056 
0.0115437855745435 
0.0115437855745435 
0.1677027027546817 
0.7940696573961419 
0.2791315743890072 
-0.79824355245828 
0.3659756411211992 
1.880686811848188 
0.09985823585517305 
0.09985823585517305 
-0.1913444727267138 
0.7696485734780445 
1.236924848038666 
-1.295024724899222 
0.3958021320214719 
1.321319429326828 
0.9641177844232345 
0.07678596012863509 
0.8734137714607338 
1.999777438344902 
0.05179008993101286 
1.544628293408367 
1.148197203068002 
0.1794867969305023 
-1.080324028899077 
0.647545743862094 
0.7379424273001199 
0.9213519401787439 
-0.05699623324740239 
0.1317750955488819 
0.5664859026218982 
0.222497677979252 
0.07681597243176523 
0.04332705798999709 
0.1401872013353336 
0.1696124257073494 
0.1694830406252015 
0.8769437327164579 
0.1458462435963364 
0.8202150059581034 
0.8419364516123937 
-0.8208755659453241 
0.516556366611254 
0.3994245778314877 
-0.1670490326987439 
0.1422646387013419 
0.1422646387013419 
0.6218051113672463 
2.220798371245118 
0.05661592791752437 
0.3176271774245158 
-0.4552792230775854 
0.5198768363640934 
0.005541181789240027 
1.076764243506455 
1.102449282764058 
0.07651036372624272 
2.27698421479614 
0.07804306796445457 
0.8576167438827126 
0.3176100102195218 
0.04204255989677062 
0.04204255989677062 
1.344060935421294 
0.5913688703563363 
0.5690550999679777 
0.4440652089899993 
0.01875009402780969 
0.01875009402780969 
0.01875009402780969 
-0.4186275670420294 
0.2304454512228804 
1.175823851196133 
0.1706413758781669 
0.1706413758781669 
0.1706413758781669 
0.5855652481938652 
0.7989780995538452 
0.2349555212646663 
0.2684257669444953 
0.7226109957062941 
0.01273362092237887 
0.7753891651062627 
1.404932453057938 
0.6003967574495483 
1.557442581153064 
0.5300503054853457 
0.04334848422613986 
1.883085593562262 
0.0487079783461044 
0.4828623921349097 
0.2036287221355822 
0.2036287221355822 
0.1761366954456059 
0.1761271236507197 
0.04917160139961723 
-2.662980393888128 
0.3093666045250736 
1.427428364061196 
0.05709336394549519 
0.4383589909829724 
0.2513254106952622 
0.8941833584427589 
0.07468125148805804 
1.265229553877039 
0.1576773265233513 
0.06137911959924201 
0.06137911959924201 
0.04090584377769892 
1.351371575860059 
0.03076572788996176 
2.647728773375989 
0.03076572788996176 
0.09184997661332257 
1.639665768128426 
0.0008717278424642035 
0.321319558017152 
0.5030902433899289 
0.1111726826154639 
0.1111726826154639 
0.1395894713153967 
0.2937545152341663 
0.4797557505399585 
0.9367521067877506 
0.321305893988333 
0.7070981025785078 
0.3848137121832197 
0.5446057083873564 
0.5639799059417143 
0.6874365097908507 
0.1579942362245906 
1.920986623917359 
0.5333741655470347 
0.7180484514652627 
-0.3620996818772031 
0.5079518268140466 
2.458779899941218 
0.004889584400948071 
0.6296286340164771 
0.109153252952907 
0.09622196313518366 
0.2469385976860252 
0.1926745814269505 
0.007492661851824192 
2.658106300128615 
0.864301037343292 
0.07130526203523678 
2.003407621242865 
0.2259884818138691 
0.6321004888057938 
-0.1343891612033958 
-0.906706886642292 
0.1327997889722733 
3.623427998268629 
0.2161060043105654 
0.2161060043105654 
0.2586981282484996 
1.780628929392723 
0.4457277122398137 
0.2490808976386471 
0.06292702720252347 
0.5790596661057928 
0.09844639874970706 
0.2991141908289612 
0.3243969150833161 
0.1579487844623769 
0.6283375094185021 
0.3247444851489318 
-0.5564585242721988 
0.2674116682658217 
0.2674116682658217 
0.03317319494676765 
0.228109399472894 
0.3784650979018294 
0.2502611790721848 
0.4872470577046079 
2.522239083144008 
0.01636834712514302 
0.9848754562368279 
-0.2001184347630796 
-0.7867798523650893 
0.9588281634210598 
2.030281151973822 
0.829688048005825 
0.6841904096961566 
0.6040854076862253 
0.3788055058912644 
0.2067768031672972 
0.2910319602069499 
0.3427230200408172 
0.441072893737822 
0.02377972668397695 
0.01789832549842609 
0.6471979820801743 
0.7360750193853446 
0.03660066113642032 
0.7761361169764502 
1.79422065496936 
2.006293250793097 
0.3662289893328853 
0.5278779138933947 
0.6141707391729095 
0.3966616306737052 
0.0958915106188223 
1.431186101091412 
0.01273356213877614 
0.2844568825722293 
0.04403838226187837 
0.06599132037052645 
0.06599132037052645 
1.868379797027059 
1.935230969838893 
0.07554601463270016 
0.07551342916334985 
0.07554601463270016 
0.5930996287219872 
0.02044198380083317 
1.474278647021714 
0.341455549249059 
0.034779262712518 
0.034779262712518 
-0.198107434295481 
0.5964022315074595 
0.1023712767873875 
0.8766861682091091 
0.04541804254140187 
0.1411427478383284 
-0.1992655526558526 
0.3421747529313456 
0.4018594795526327 
1.569922070335135 
0.351290433652866 
0.6643532413484114 
0.009492307155048776 
0.004425451434684798 
0.000202466993881775 
0.5593867860649345 
1.535028333867149 
0.4386538693946875 
-0.795207515386926 
0.3248596257850503 
1.715835827736291 
0.01954665132977919 
0.09636646070731542 
0.1802374997052624 
1.549279210459152 
0.2121435017249018 
-1.120355810372647 
0.4126908953550117 
2.495763626299516 
0.2804687721474867 
1.053383404655259 
0.006299855047149442 
0.1089185153525948 
0.2905946173119688 
-0.6110888649129892 
-0.08055100751505319 
0.4112498818325099 
2.893965255650312 
0.09887921603806485 
0.557255099316352 
0.4490399008579441 
1.083568848172216 
0.2215183882348292 
2.214324685169315 
0.6248795978173967 
0.1633692411651706 
1.13304697529089 
0.4289695826340371 
0.2747505811550452 
0.2330544433431867 
0.1574658725449148 
0.9242819385762336 
0.1574658725449148 
0.1810332419057198 
1.988565205741287 
0.05494496941252566 
2.152065558328531 
0.5769534730995799 
0.4740157881951088 
0.3197114442687837 
0.3484575806874421 
0.2966745439443781 
-0.627522758589381 
0.1607136912110092 
0.1607136912110092 
0.1607136912110092 
0.8375243546701022 
0.1769870275796867 
0.2852973288237403 
2.402623610285254 
0.5432730721303851 
-0.5136448591578545 
0.7259113841788968 
0.5671837059831329 
0.6677887945263482 
0.9348245780770907 
0.02920169479730117 
0.05840338959460233 
0.1938405513695828 
-0.4085564149940689 
0.35457706495811 
0.2958337469250865 
-0.02509525150917269 
0.2335119441025096 
0.2335119441025096 
0.02009036881532984 
0.8790990040975862 
0.01533548685442175 
1.342130571768609 
-0.2712584440759167 
0.1633975559728048 
1.889318480860765 
0.4972938704270828 
0.1176745248600043 
0.6409340333190567 
0.5411375037920292 
0.3426589862248575 
0.3348687101717573 
0.458374546830028 
1.545668718312639 
0.1395842054559953 
0.1395842054559953 
-0.02937693126491711 
0.2984011622585288 
0.03352371736295724 
1.911218950076449 
0.9860774839316478 
2.05521918869574 
0.828255527843181 
0.1936741968364656 
0.1936741968364656 
0.6665069072181282 
0.3090722855990181 
0.1443654703370355 
0.1443654703370355 
1.105567937120546 
0.4487367032716689 
0.6061615600026561 
0.3137273890971736 
0.356317346190938 
0.02026281891247086 
0.02157575686414576 
-0.0001966440149069348 
0.7033420453649696 
1.579499640964616 
0.06983908560060889 
0.8793414201753106 
0.01429847499148783 
0.07961208017987052 
0.8046247103974582 
0.2237812937103953 
0.1264806522573499 
0.1785469170288912 
0.1554155990348635 
0.1264806522573499 
1.417651314874195 
0.1696530796854769 
0.8705175529244887 
0.02762897021728209 
0.5369349954335415 
0.2240731889027971 
0.6985340698531235 
0.01293952602919057 
0.01293952602919057 
0.1578574478488146 
0.9036575296499303 
0.2329688284029773 
0.1578574478488146 
0.2363299828481893 
0.6344845502681759 
0.02900707120827458 
0.272335598911472 
0.6112108949130525 
0.05301728086543726 
0.05301728086543726 
0.3110636194657843 
1.894461144032292 
0.004689085463613008 
0.004689085463613008 
0.3137727155420701 
2.363509692191686 
0.3047564647169402 
0.7460801790010544 
0.5709944326047677 
0.04148692922439163 
2.319707995804251 
0.6282706914846486 
0.2875827540975233 
0.6578913135581516 
0.9388051593072789 
1.276046995350574 
0.1574416209890875 
0.00301662187101602 
0.06445790586453903 
-0.6879735697696068 
-0.3858832432464652 
-1.885902274166751 
0.02359916242043022 
1.332903663355655 
1.721522979681779 
0.03974299465369932 
0.1899855500956673 
0.146837865201377 
0.5524896380064316 
0.114328731711658 
0.5927579357786378 
0.1074194657910187 
0.1585614196080531 
0.04316332973186048 
2.754566535516348 
0.4016338107969055 
0.3487744513202228 
0.2110075382263927 
0.02049779518393049 
0.561174208695969 
0.8788156658616267 
0.2157666212135933 
0.1777323484353003 
1.996329112317034 
0.6076806827621212 
0.1139400867682689 
0.2028991597301363 
0.2048796075909408 
0.5041346482553033 
0.0744629767400504 
0.9573583807188794 
1.559530961922883 
0.6893603032612799 
0.3158265054374365 
0.02585684912840506 
0.02585684912840506 
0.830141412273118 
0.004495287019378946 
1.034736358518212 
0.4065639786486463 
0.3073887888335963 
0.006314158881055936 
1.258389895402098 
0.7222763563849413 
2.537394632752776 
0.368877113320091 
0.2664746685947774 
0.2448496787595533 
0.03808131399152461 
0.03696395657491713 
0.09767603122599107 
0.01801137595871585 
-0.1514641644094531 
0.1834797408011788 
0.4560582244326531 
0.4560582244326531 
0.3452250765320405 
0.3452250765320405 
0.4719146178240989 
0.01914528598292189 
0.002672197971602022 
0.5204522370893293 
0.1545805993928777 
1.161584943406632 
0.4412083262135331 
0.01374729254480206 
0.2662202465882113 
0.553012479601343 
0.8391127037764735 
0.360544755586956 
0.8218967524915415 
0.5744390587474305 
1.160775467498002 
0.4774184896518282 
0.07065250032050403 
0.07732298042922761 
0.1932240438186665 
0.2853060966633953 
0.5782363682162637 
0.3803638092043217 
0.3601583800702381 
0.2015956286477791 
0.3008734788190703 
0.7238172810085508 
0.4252830061641302 
0.1848267317188981 
0.1529519302763141 
0.1529519302763141 
0.1529519302763141 
0.9612212478776389 
0.0215346958536526 
1.348440338524839 
0.5422762587281796 
-0.7294386167510583 
0.2649956333852103 
0.06622188613871942 
0.007474473894716012 
-0.1650404823682539 
0.8864258751492354 
0.1335709951087312 
0.7897829912903553 
1.130955246350422 
1.013376912798468 
0.0688630102816572 
0.9921691590146455 
0.05452361154048841 
-0.6260753320970213 
0.2010224370667741 
0.6385685151272468 
0.1103100071650717 
0.4444644248360921 
0.2057689962841818 
0.2057689962841818 
1.450140105065356 
1.024162647574439 
1.166781533732128 
0.002875920029002059 
0.1182552512994066 
0.6294247516774122 
1.113981223692571 
0.4984186872370225 
0.1423148415763189 
0.1905190981385985 
-0.209224956760877 
0.4616673060218288 
0.1331628391296408 
0.4461551124647297 
0.1220532719519624 
0.5476088114604137 
0.07391530839630429 
-1.151947240928058 
-0.8642098113904564 
0.3594820978724299 
0.07286426076939397 
0.07286426076939397 
2.803874984601742 
1.582433725487701 
0.04638023706948122 
1.462590182264729 
0.9131320481015821 
0.07388325530543474 
0.2808784981394388 
0.2358332078572242 
-0.3416391469938892 
0.007534873268013598 
1.166286691758068 
0.04207319321359956 
0.4351595566500648 
0.03182367275494579 
0.4285579812114579 
0.7481003096444713 
0.1665927859809019 
0.008156041105114035 
1.023239977213905 
0.1060575584132772 
2.747279530687212 
0.7858574762804474 
0.03096510213993238 
2.057303325501201 
0.06574365925609753 
0.2734688010122602 
0.4754075494030552 
1.051586439044275 
-0.542643188395354 
1.757031525290928 
2.890562980904448 
0.4389650274358923 
0.1553607136689561 
0.6887579482417724 
-1.022141715236926 
1.652922493418957 
0.2114702509211661 
1.645092955932599 
0.06882269688505996 
0.06882269688505996 
0.6746170653033146 
0.4689676807525342 
0.5919070350198601 
0.4194594483148504 
0.1180120550643967 
0.09500473622182717 
0.01564382122165318 
0.6651233567952582 
0.01372434841712409 
0.3543654043119704 
0.009032475782129354 
0.009032475782129354 
0.03043070697395557 
0.265633253282708 
0.0322046749618588 
1.099413920735006 
0.6864155029861365 
2.282625937693347 
0.07829500782175246 
0.2882165081557396 
0.8351608962974244 
0.1837997070525824 
0.1837997070525824 
0.9427349221976556 
0.2219616394982752 
0.2676983644065443 
0.2685311145471949 
0.3446514709535175 
0.1392233610759268 
0.9468438502908885 
0.4182155474378119 
1.405749730334493 
0.02740563862677644 
-0.4644677709129049 
1.16320353222551 
0.02238290854048994 
0.08312139156655013 
0.8505989984157775 
0.1347676660062004 
0.1901235392520349 
1.616262805846615 
0.6449138980202851 
0.01417635457144783 
0.4707042561374515 
0.3893189447005855 
0.4189994101247847 
0.0295594109614311 
0.1899884785320827 
1.639550136080831 
0.2538802755274303 
1.584398397508949 
0.8704268380225934 
0.02117995207583577 
0.3826559362417029 
1.661125673572377 
0.6214716207888481 
0.4296346800757596 
-0.4008017795177199 
2.055233207194497 
0.6944938514587254 
0.3192181167593111 
0.1752254639668756 
0.2808094800302555 
-0.134913691851526 
0.04796046825420078 
0.784502694050312 
0.05097788697573066 
0.1205371568841918 
0.09382953050242172 
0.139068806184287 
2.436925200501121 
1.336583338577077 
0.00533022282094243 
0.8355331744884524 
0.3293840304842123 
-0.1760970547587632 
1.631940553240633 
0.2870348316102919 
0.06395113501898893 
1.088741239303636 
0.1066638606827377 
0.03890849644078583 
0.04701356731526132 
0.1323356300044445 
0.07194491148565078 
0.07194491148565078 
0.3678419392861823 
0.1650164561001201 
0.8548278822551778 
0.01119248890191983 
0.01225437041088805 
0.6057978193832084 
0.1178070926559331 
0.5026934454694409 
1.269621253899947 
0.5760936367140019 
-1.825028885633673 
0.137340356135159 
0.5606227896703216 
0.01479250874670877 
-0.835575284326604 
0.05182979885245832 
2.840348429294791 
0.4384093280447862 
0.07071792524369179 
0.2894815641674252 
1.89463487966456 
0.02997467146831807 
0.06539701273473378 
1.264599122031129 
0.004666117740314763 
0.1611862532991563 
1.543287869637812 
0.8932071166234303 
0.9437501601203069 
0.3258396558361407 
0.9665538258411043 
1.1737954866437 
0.8540775686140455 
0.0358449499757274 
0.3251316253556317 
1.704376714110451 
0.3790190028684994 
0.3054776764216626 
1.714791272135033 
0.4858080340937173 
-0.2715429844371681 
-0.1446139907218483 
0.1514858868709226 
0.52415204319404 
0.9723276019040451 
-0.06106688666234816 
0.3155975255983042 
0.5967925598934954 
0.62771867597507 
0.0802546095543344 
0.0802546095543344 
1.011696554052525 
0.01051140474728893 
0.5057351508467279 
0.01394491861404034 
-0.09159905522554683 
1.448903850754045 
0.244859051978439 
0.3667465514376322 
0.526573390365065 
1.339288602855589 
0.1339882438724484 
-0.7707643362953391 
0.1646384408152686 
2.103530577250975 
1.450684022160092 
0.134867048174044 
0.04700906807416547 
0.18756569299598 
-0.3105127472576271 
0.9241165197372866 
0.421813019722583 
0.1126292701954546 
0.1126292701954546 
0.5114485522060841 
1.693931876550305 
0.3186161660796516 
0.3770792548163632 
0.2434418031876361 
0.5592894771409449 
0.7768187761690634 
1.789354778523617 
0.03376687806327536 
0.267856000242145 
0.267856000242145 
0.02167417553066017 
0.08937235159309714 
0.3897065907371901 
0.8195197968115845 
0.09843957386836577 
0.2399301865970088 
0.1580235547172159 
0.2458585563586549 
0.6222291903700048 
0.3592075189260795 
0.3592075189260795 
0.1568813056824674 
0.1568813056824674 
0.1681073901414864 
0.5041965815813001 
0.457750134311958 
1.098053984602364 
-0.3545405853683245 
2.001374190472697 
0.4516682045638933 
0.1983909741828248 
0.7615990434512312 
0.6057527531842785 
0.1409316262143013 
-0.4083858644525 
0.01517179049309406 
0.1040631122722404 
0.6402537542812038 
0.6559039760606871 
0.6844299651813759 
0.6595695412078879 
0.03504601431526662 
0.4018280135255801 
0.5685962688110503 
0.02710917134550344 
0.1930623023935192 
0.9269848873137532 
0.1456422155959102 
0.8252029081323147 
0.1135157912740036 
0.2588653534783548 
0.5116027517017736 
0.9869114103069307 
0.7562741112826303 
0.6890923922492755 
0.6301592769656489 
0.1049211135648164 
0.01180052609777276 
0.674611882803524 
1.090402944100766 
0.0294454516075785 
0.2213996114219021 
1.054485518288192 
0.06391388105438341 
0.06391388105438341 
1.531677658191227 
0.06947084116411895 
0.9086062036897644 
-0.5818437618084514 
0.4109534266179258 
0.2187033891047072 
0.2187033891047072 
0.2187033891047072 
0.278978343771878 
1.064707592618929 
0.1314173201478991 
0.5432779117193303 
0.1329102475771819 
1.4156772993763 
0.03658716007423785 
0.03658716007423785 
0.1880145101608535 
0.1935032750093555 
1.019583973007334 
0.005648592070908697 
0.005648592070908697 
0.004117858718286276 
0.009163029818219731 
0.2941909922500111 
0.3716222634825068 
-1.027792726474918 
1.198704399051845 
0.1969961305440404 
0.1969961305440404 
0.1379836778329009 
0.05272480033483234 
0.316736978139712 
0.06860321554850143 
1.265652979927811 
0.1779545236104858 
0.1802537238694549 
0.0659757034535309 
0.2295676621210567 
0.1368978435926125 
0.862101785860159 
0.7192074540846428 
0.7226005595890298 
0.4229124050535218 
0.2780897189355701 
0.2780897189355701 
-1.251868491475995 
-0.1470701438773079 
0.2119483939655533 
0.06608443763760205 
0.1259098077583068 
0.03360440472457673 
1.021091977507031 
-1.323265390502082 
0.212289795569332 
0.002309375931061546 
0.4774247910883477 
0.4358437691061309 
0.666207000037593 
0.09529162036173275 
0.04128752327169214 
0.599297920092379 
0.3314550024245346 
0.9210834169978082 
0.1704627500667961 
2.175339631083325 
0.1470396169262976 
0.1112578819833316 
0.4595774828335355 
0.1605357833989162 
0.5546943584298685 
0.1605357833989162 
1.464163044175242 
0.0503988626327332 
1.285317720776484 
0.04316867601012697 
0.1437051676667803 
0.4967182158692039 
0.3651429736082834 
0.4819541594480828 
-1.153912659535152 
0.4958724680965134 
0.09181075170270321 
0.4326017520414551 
0.1854231063966073 
0.06987203114988587 
0.4202842567788142 
0.06867983799912535 
0.08601372736370887 
0.01290555515714646 
0.3498911284043201 
0.2812893594599819 
0.1462841574641547 
0.2242639792639927 
1.436199708789743 
0.5233734939485433 
0.07416684269381313 
0.2762091590071664 
0.3937595194368093 
0.001679872151357726 
0.6835558849606758 
1.440208623744588 
0.1293734990525717 
0.1293734990525717 
0.2770948703332343 
0.02945084881326951 
0.5680512406378471 
1.988376456473357 
0.1484037036285219 
1.307515483101773 
1.288127906320666 
0.1002990445715112 
-0.4907487811751636 
0.0238276907592467 
0.03184722233116139 
0.2897246413237212 
0.7135281256723496 
0.7239652777396525 
0.6145043176539385 
2.094330472079095 
0.6321111375286471 
0.2173697516508901 
0.8796130085556793 
0.1478935944602794 
0.07521717939497501 
0.06252572108289531 
0.2286209695637578 
0.3091920236828816 
0.1799169272649839 
0.1799169272649839 
1.267652642633329 
0.04839055987425762 
0.1704728159836979 
0.1704728159836979 
0.1704728159836979 
0.6265378529200971 
1.284692709605612 
0.1476242610899151 
0.4738834078913257 
0.4273393596321809 
0.147825314131376 
0.147825314131376 
0.5077150281133904 
0.2154968141566907 
0.06728494768320144 
0.03738469544861586 
0.02527128608087259 
1.087599354567285 
0.27223160219517 
2.026662031396195 
0.07728280402420992 
0.6116813904782257 
0.02455053863073493 
0.1034029529933187 
1.483864493690856 
0.5936849911667214 
0.01053413727943329 
1.535484568514091 
0.6841778506146825 
0.5267700901000418 
0.2863862127980684 
0.4871601839031058 
0.4958875136934444 
1.154196665807392 
-0.4430642199691159 
0.05197376874863835 
0.6029876808309435 
0.3672508347403781 
0.3224648783596991 
0.06616795523059808 
0.05651552518797893 
0.02521608204240819 
0.1481259083158686 
1.435756563617588 
0.1481259083158686 
-0.08969953111280041 
0.08083943207411243 
0.09047990743107652 
2.343241121021443 
0.2619864716441349 
0.2223881900610336 
0.09247341431006069 
0.7804537684819586 
-0.6170530203259517 
-0.1386795861016895 
0.5250747295363761 
0.3390729401000491 
0.223119727719568 
1.28149926564155 
0.05634747995549681 
0.1411222566690051 
0.007173550613715536 
0.4706995008827134 
0.6590483905455732 
0.1590559191914353 
0.05223250164909805 
0.1018109822564274 
-0.3912352977565683 
0.1018109822564274 
0.203622269946107 
0.1018109822564274 
0.001035187610817543 
1.553161620036499 
1.718713013231971 
0.01238918609484169 
1.077876438933063 
0.01238918609484169 
0.3640331879777654 
0.1291476493054238 
0.3733255262436527 
0.1128819206301668 
0.1128819206301668 
0.5359618842592554 
1.274234809260631 
0.1004426503377347 
0.2865069387227238 
0.7547772057598003 
0.3890493513107656 
-0.09334103755722974 
0.0648901476801067 
0.04041515436038174 
0.07563798136876743 
0.06690787609096426 
1.277718747836769 
-1.459145050334138 
0.4554866898403766 
0.2576245343161318 
0.1148490604093958 
-1.063760857502333 
0.3258317227114382 
0.2078802818374221 
0.4025078962829737 
0.005580484761874059 
1.010709238432894 
0.005580484761874059 
0.005580484761874059 
0.2356658003166777 
1.399745524222083 
0.108799075141376 
0.108799075141376 
0.4424137129271236 
0.1829658819472536 
0.4430401751246651 
0.2991359547118346 
0.9508214734325073 
0.6727585787230692 
0.1290634787798344 
0.05087186026190029 
-2.008613850283753 
0.02517285574296046 
0.02664263312382301 
0.0628403420825821 
0.6769557955584864 
0.05175310014959471 
0.6071412109227853 
1.210900184781009 
0.7384412084456481 
0.3037657055617185 
0.6999501474980946 
0.5949836718794552 
0.5332575513513712 
0.1213537240992349 
-0.0555211819896099 
0.2238421243034871 
0.315952631556522 
0.6942527276511925 
0.2325965784052624 
0.06721326358340028 
0.07367605126546115 
0.6050913090238074 
0.05448378195122508 
0.3642530414606071 
0.01232941726587123 
0.54543453304956 
0.01025101562057587 
0.3144958049199036 
0.7666147745397974 
0.1350219901856848 
0.1687865895683484 
0.02739840152895459 
0.649290494068945 
0.02237122150084735 
0.1634404718734614 
0.1567682933225471 
0.4502493053848824 
0.7646510910150353 
0.4550424259475288 
0.27806187194686 
0.3133599274033485 
0.09458700471565056 
0.129335059705061 
0.2649691448594929 
0.0869848740532691 
0.1358092679832286 
0.2828886118655302 
0.002705087391541535 
1.242052313828125 
0.6471337890492173 
0.1838419266704124 
0.3894786664692972 
0.03203951041658138 
0.8228025499324843 
1.418333116145734 
0.418822729158312 
0.5611575246037648 
-0.5312355417489442 
0.446019559141602 
0.3384259580216107 
0.4942406258575087 
0.1058856173710699 
0.1551689006875312 
0.8736416173313761 
0.5462640154196824 
1.753053047224775 
0.2906538641400326 
0.1546466228403938 
0.1546466228403938 
0.1546466228403938 
0.1546466228403938 
0.1546466228403938 
0.1546466228403938 
0.5632282214310302 
0.9571669378051437 
-0.4816443245492156 
0.8430207480837674 
0.7476444039670219 
0.8179993081987228 
0.1652194512325235 
-0.08104888605453181 
0.2117476996308314 
1.202153785457911 
0.5187039927836363 
0.02409343727035272 
0.691366995889225 
0.5057313942367946 
0.3170042240009853 
-0.7513701560003866 
0.1571911273961993 
0.749689710003048 
0.04877934204093185 
0.3819873185635851 
0.2224184460484744 
0.04196632527076313 
0.02569900451893982 
0.02569900451893982 
0.5535470753803553 
0.7539081492750441 
1.63326391210069 
2.141255247754076 
0.01835242394231971 
0.4795119775952001 
0.434957434472474 
1.437501358225013 
1.09563150189841 
0.03306219496211099 
0.01700269494401346 
0.1327503834510817 
0.03380642382931976 
1.373457635526252 
0.2866010533979541 
1.016001074381121 
0.6226170624226137 
0.7604698634297146 
0.09195878529758689 
0.09195878529758689 
1.791241871838888 
0.9447707361466897 
1.337034589355975 
0.2284756116485438 
0.3292362772306417 
0.01599685549124036 
0.01599685549124036 
0.01130541738885937 
0.006165364932398346 
0.9434250206447931 
0.1803929907867302 
0.3713257731834386 
0.09844492209170853 
0.1297798523499243 
1.658850124805143 
0.374916834153967 
0.039766973436052 
0.3860328448342739 
-0.1301169927213312 
-0.7834275408521949 
0.3205657267670646 
0.185778918100188 
0.5010767639257165 
0.4982810974051494 
-0.7556327145012434 
0.1009482487361676 
-0.2469493746112062 
0.02567215304391546 
2.429323942313096 
0.8878888241443459 
1.050150208121539 
0.1984068907434818 
1.345522124872564 
0.4843664735597707 
0.6879755652992244 
0.6852755710551183 
0.6851113702597894 
0.3533114640945424 
1.160425107998189 
0.6353926135609937 
0.1337661928561433 
0.2376947783809006 
0.1337661928561433 
0.1794120687242161 
0.688365394145805 
1.060322656600191 
0.3058174118403189 
0.09118134195982489 
0.09118134195982489 
0.8188449277600256 
0.3626777233541049 
0.2586710073251945 
0.1089130277081673 
0.1089130277081673 
0.2212486710239597 
0.1519109519840416 
0.1745195968068187 
0.7001207899661465 
0.3312600082537043 
0.3954061612923276 
0.8665814382494301 
0.09014263868578219 
0.09454677902735159 
0.1201393796145035 
0.02121119559433324 
0.4754391967150164 
0.09268813601355387 
2.280248467102122 
0.1597201963472076 
0.01881427598030496 
0.08675345424287563 
0.6373093419810407 
0.2145106248401054 
0.002418446965459237 
0.1736622755641988 
0.6015798802331579 
0.114643653901348 
0.114643653901348 
0.114643653901348 
0.1148464648544109 
0.04200303223218171 
0.01871349119912311 
0.03276190063437226 
0.8617991328292613 
0.3057706796831595 
1.073524383415279 
0.1623679005606191 
0.2781186195482077 
-0.275833444373373 
0.05597148531803133 
0.5511737798558148 
0.007836971666873539 
0.007836971666873539 
1.270108108405677 
0.7502653053437336 
-0.111836200015917 
0.4743899948665417 
0.2420934125919194 
0.008589691104352334 
0.4582143190452619 
0.6340279831116059 
1.19002758659428 
0.01223488180404743 
0.009640518686766212 
0.1985789694208405 
0.02895307767594205 
0.02895307767594205 
0.05319137750372838 
0.7949017425924357 
0.05319137750372838 
0.215576146825021 
0.9177102503131735 
0.5907715286397914 
0.1702416616114074 
0.2027651195456118 
0.2107154560068451 
0.2295170759960035 
0.4418773436752993 
0.9392998897619489 
0.642742289856987 
0.9762783521497125 
0.3877406807667092 
0.4071146046298876 
0.02051069434975396 
0.2551685590712441 
0.5657816100629471 
0.1661679322105401 
0.2549270454817901 
-0.4479978436365276 
0.2429800641682092 
0.3537653311414498 
0.9822634275014351 
-0.0008161287451692045 
0.00773567499341681 
1.437394285653563 
0.306650725717115 
0.09273859492337905 
0.09273859492337905 
0.07096390534021323 
0.008560536341915862 
0.1448111680794484 
0.776981141135522 
0.1448111680794484 
0.7120119535582207 
0.01624008235133256 
0.03045014532864879 
0.04880039887312581 
1.722071457064807 
0.04880039887312581 
1.448078003612332 
0.2419357119274197 
0.08944673053543536 
0.2568128265688472 
0.1604137918167098 
0.1604137918167098 
1.020320121587568 
0.6155488025246324 
-0.1704933031129477 
1.468708175718854 
0.1630412984666936 
1.368850039712687 
1.153131391948359 
0.1333437803182755 
0.6447789151734329 
0.08530404631331479 
1.523408707833487 
0.6550567257128216 
1.787913821632767 
0.1371705183762812 
0.3272044021034956 
0.7296691193007494 
0.4848536285961279 
0.03160516382272774 
0.3073793752867228 
0.6216513681732919 
0.9083667809578063 
0.6369217313529875 
-0.2543118993801579 
0.4085438529912156 
0.9634268717627442 
0.6772912573522699 
0.410170890532521 
0.4058996447977771 
0.5868583003808908 
0.1368502227111797 
0.1120822537245986 
0.02058573806893374 
0.02058573806893374 
-0.09131005450894268 
-0.2578826408495405 
0.002343187553093647 
0.01155016822713677 
1.705891350917534 
0.02239846936683759 
0.1710725616210636 
1.257170990609305 
1.053082477546239 
0.9836498966916216 
0.01244101094673348 
0.5055945845392058 
0.01244101094673348 
0.1999898352284663 
0.03556501756762449 
-1.871259389779762 
0.7695907983265314 
0.3111924009321936 
0.124924286500485 
0.124924286500485 
0.09556871208110897 
0.07289290094157322 
0.1461013561424573 
0.1706392644526088 
0.03368498990864238 
0.4962882484539363 
0.2267147032427002 
1.127321876037308 
0.03082597757582739 
-0.9558122870914916 
0.3655393283268629 
0.1804182034963509 
0.04032465440734043 
0.4018394760270361 
0.2241115847991082 
0.8523210426376083 
0.3014629478225825 
2.272548817115026 
0.3014629478225825 
0.06563528426837924 
1.924038921390274 
0.0122868617243128 
0.610337514954709 
0.07123341407632046 
0.2992572633171044 
0.4745544197225478 
0.02191079149973598 
1.437378109138202 
2.485433162470251 
0.6956827008776039 
0.3305990828595962 
0.1321759980006027 
0.9024251137961879 
0.1678536311660128 
0.3984713815931136 
0.01536936156404022 
0.6880431872485129 
0.01532389493787629 
0.008477861792998165 
0.01695572358599633 
0.5915676383735382 
0.2140918883809372 
0.3977094703316625 
0.01608407663474878 
0.02294186766616342 
0.6862749027420736 
0.6711243303482658 
0.1550372412053152 
0.184772499899225 
0.184772499899225 
0.3016702020979544 
0.184772499899225 
0.1768047486595101 
0.1391395557339968 
1.11885088195426 
0.3192557978700044 
0.2848181193890368 
0.1620276507424854 
0.3425627109593963 
-0.2151718859395371 
0.1383583092935422 
-0.4245348796342759 
0.5768725596545883 
0.219105496263509 
0.02151952530029538 
0.02151952530029538 
0.7433359459347806 
0.03161152863692279 
0.03161152863692279 
0.3494222924042897 
0.2812806514171507 
0.2857255724287293 
0.1251363471744586 
0.1264843321425298 
0.5480533682353267 
0.5461152282411835 
2.710122599781928 
0.07546103234507653 
0.07644845894718051 
0.1935415803270961 
1.102104831640708 
1.004273114721023 
0.001471296113778372 
0.1309504339179854 
0.1952925693516919 
0.0299980432467099 
0.09609076518123169 
0.5863112377633294 
2.054369908936646 
0.1700593090694311 
0.01435051762819417 
0.4048225117146222 
0.1194711253608066 
0.2008415674793705 
1.006429956928645 
0.1053593764391506 
0.3498848441482703 
1.442666301190705 
1.484651779238735 
0.2559962716635523 
0.8690321620629068 
0.4046641639323161 
0.02606937005208658 
0.4189165540776209 
0.9275431492670499 
0.06522917909012764 
0.6074986500457009 
0.1745241036753906 
0.260680099716966 
0.1745241036753906 
0.4619154732161853 
0.1546466228403938 
0.1546466228403938 
0.1546466228403938 
0.1546466228403938 
0.1546466228403938 
0.1546466228403938 
0.1265375962492705 
0.8038545220546138 
0.1265375962492705 
0.04429669054254543 
0.2672997670097516 
-0.4257108822745733 
0.9668133809329679 
0.07844267071563545 
0.4079606793797284 
1.591393952495496 
0.3004672950727363 
0.1788386978891676 
0.7959177822831869 
0.03074821042176284 
0.03074821042176284 
0.374064300428152 
0.01955997533291662 
0.1662429181014279 
0.2040279857941349 
0.1662429181014279 
0.2208126118347995 
0.1662429181014279 
0.836018769079521 
0.2231728259221714 
0.2075578743891224 
0.9940517378730335 
1.261942996271334 
0.7488308322235853 
0.09780754002998847 
0.08309400609221919 
0.04297378720687836 
0.1716817460146318 
-0.4280333421208927 
0.03203951041658138 
-0.02353266446387448 
0.2187033891047072 
0.2187033891047072 
0.2187033891047072 
1.387651132687125 
0.02985576756105363 
-0.63747553076699 
0.08239880556089309 
0.007918231641983877 
2.569255865603153 
0.2108648806498054 
0.1544069393684177 
0.3490816296223766 
0.2264950696118262 
0.319239980957096 
0.114681986234289 
0.4808162819601401 
0.6534244320110675 
-0.3526774340247829 
0.0572110200500908 
0.257076155545035 
0.1780063398943035 
-0.2621053363338464 
0.1780063398943035 
0.2428636684934129 
1.077690243971493 
0.5832174966756826 
0.5649457701573225 
0.3673358739977957 
0.07712828370307157 
0.005922179597327608 
0.3142686704289639 
0.2129167711824786 
0.2129167711824786 
0.8605031074190392 
-0.2135027307573155 
0.08159777447851098 
0.5193607875495247 
0.1374522777342766 
0.2749048921567372 
0.8104401418206275 
0.929675957255146 
0.1730100684119786 
0.2266753856016508 
0.06789915406867991 
1.227682938401859 
0.04325171295483989 
0.02505472789320336 
0.008348695194596958 
0.8751350334969655 
0.3817268293443556 
0.00201848831836581 
0.03421345032433767 
0.6464535515539108 
0.6363203501692496 
0.07394366656157415 
0.2855210243745945 
0.2032607608628259 
0.07521042453523936 
0.2545995281674542 
0.02279886806317381 
0.8919058435697605 
0.0814604473450932 
0.4028933352863802 
0.1728645000193959 
0.001989876437283507 
0.001989876437283507 
1.423457028129139 
-0.1916807220869845 
0.08773245958899498 
0.1159386056863566 
0.08773245958899498 
0.08773245958899498 
0.7514538964056938 
0.2164723138116729 
0.196314992919696 
0.8457388820714625 
0.3112345502796301 
0.5498211368379823 
0.1183681513287325 
-0.4687918969541801 
0.4696862112642269 
0.4409304448429375 
0.09445718581465502 
0.2382269789916023 
1.147389477019299 
1.016186815014552 
0.9849114432077571 
0.4661562220924763 
-0.357560307690462 
0.01435859286380805 
0.5860640445354612 
0.2352550942479857 
0.2142696610159933 
0.52605880020135 
0.03960742645567488 
0.1399640900596223 
0.1399640900596223 
0.3292089988008987 
0.1452914073935337 
0.1574427768725006 
0.0009925559253158756 
-0.9734654333656063 
0.02250462030879214 
0.2658274026122603 
1.794611646617604 
0.1929738145051058 
0.6642944878715726 
0.9008355976369481 
0.1634098268032446 
1.514292762647915 
-0.02897963268102155 
0.6208083874905569 
1.261719131583498 
0.1091804115637713 
0.1111197875922092 
0.2871272843161843 
0.2871272843161843 
0.1448628735999281 
0.9821541208781571 
0.1448021313085884 
0.218153371058073 
0.218153371058073 
0.225805593361079 
0.5454746532063971 
-0.4693877528821565 
0.2699241139617309 
0.2919737206769694 
0.8361894360970121 
0.2012101599090503 
0.5313097102768678 
0.2012101599090503 
0.04727064853824523 
0.7788417984666787 
0.003084146017287149 
0.9387018005933683 
0.5824890402640671 
0.7888960564998233 
0.04890319501179884 
0.04890319501179884 
0.07471079928678966 
0.07471079928678966 
0.02016838223054801 
0.1850103117292926 
0.7442874396219162 
0.02561835015231652 
1.711591378544285 
0.163228807132749 
0.8005768386830633 
0.04847946964590819 
0.1182903510512069 
-0.2646678768096239 
-0.2595615673420641 
0.1481056107459708 
0.06971328831139384 
0.2149913989252974 
0.1092174526028339 
0.2424175656234266 
0.3399839387294686 
0.3208964583671823 
0.3546202138139606 
0.04621151410064743 
0.04621151410064743 
0.5709226997506506 
0.1705721143681154 
-0.0196231473951619 
0.8024656353708014 
0.15008324875178 
0.5152047287491527 
0.15008324875178 
0.2109883922885997 
0.06804996581126908 
0.9454211329236086 
0.05149951849613561 
0.3371156184089504 
0.04055371219302888 
0.02334901769728319 
0.6270849813250249 
1.094729276361267 
0.005122200213728723 
1.054135947142442 
1.29141095851954 
2.199666219390927 
-0.2226084300965008 
0.2283018530655735 
0.07430772596911149 
0.160531436488638 
0.160531436488638 
0.160531436488638 
1.188139619258184 
0.0557523296534503 
0.4014598757226069 
-1.580987885832306 
-0.5969814400870748 
0.3237062459696968 
0.05631782430679332 
0.03426066870707523 
0.1002103736065328 
1.133019798519668 
0.8102004633854391 
0.1931483745163173 
0.07915120621063611 
-0.4129024079295845 
-1.29296796104952 
0.6115630441951222 
1.042924854547848 
0.02836337618015219 
0.06526118464189563 
0.5053633702670411 
0.1192746366223946 
0.1906674234805385 
-0.8569784839597385 
0.199441874062852 
0.2079270019691735 
0.008687078959346324 
-1.734923980780899 
0.8852804815333656 
0.09894666617263823 
0.9944169804869631 
1.049227797194643 
0.2156338029742393 
1.028071190711097 
-0.1526447640205274 
0.06344302789228183 
0.6698328986796076 
0.1728308504673703 
0.5949903038359832 
1.193023873971402 
0.06755935727808982 
0.8680828796048452 
-1.39446930301624 
0.2552202584927007 
-0.8280749124695409 
0.3006459864045424 
0.4846015994739958 
0.08242462046923243 
-0.1168779205946655 
0.08269930110088959 
0.3518797562859433 
0.2657039440897634 
0.3258333251260098 
0.357524342870837 
0.2583770186400891 
-0.1208649154807566 
0.2916892275877619 
0.2526965889265763 
0.006911937394957426 
-0.1106404627950195 
0.11435171388359 
0.002281759857696333 
0.008055052993632694 
0.001861543212227299 
0.001861543212227299 
1.009769765564535 
0.2675304577950458 
0.01419342020475971 
0.2291314591313189 
1.027618166455932 
0.3366064391994995 
0.205500495372429 
-0.0104821491383785 
1.915763489258719 
0.4876649933760554 
0.1474622866656913 
0.06593246063862111 
0.04634585891588264 
-0.003191333204546995 
0.4354352851759851 
0.1439926527924355 
-2.68613850925046 
0.1439926527924355 
0.06054961228964933 
0.4112249267690427 
0.07853084405766605 
-0.5544567708668282 
0.2647214655134277 
0.2647214655134277 
0.7758717333448509 
0.2680536395601897 
0.2491913748850642 
0.4983827497701284 
0.009122123689413647 
0.1425173056736441 
0.6729433353227693 
0.3279340365721142 
-2.205852068603138 
0.0256910557450253 
-0.1753324897453777 
0.4513537886639525 
0.34680849052014 
1.533377358477205 
0.9641147393200336 
0.02477769214524014 
0.2639660406418499 
0.4729625490689701 
0.01849075021487225 
-0.3557456319138311 
0.1890712919734268 
0.1771849465126417 
0.6088303542435787 
0.5045567947974647 
0.636601172810472 
0.2427773129437266 
0.3788055058912644 
0.1876570750395214 
0.06120914484654728 
-0.1673004828026962 
0.08220334281645582 
0.06120914484654728 
0.6623111170409446 
0.07290804078935748 
0.2452496632242821 
-0.2867198710360658 
0.6112846627324942 
0.03290195343740276 
0.1937096869494101 
0.04889565244831945 
0.0430053742765913 
-0.2250855384985515 
0.2328272812187826 
0.8010231804872058 
0.1594088102859186 
0.9518242393754787 
0.2275131719009356 
0.8247135549725251 
0.05703996108314811 
0.1944591351855053 
0.8585162559405521 
0.8910317000012046 
0.07124689379033326 
0.02444522730987602 
0.02444522730987602 
0.5140334311663356 
0.2158457845305518 
0.194026489437861 
0.1251912416529425 
0.1251912416529425 
0.0003286402254244342 
0.4342138309620913 
0.3208746866061494 
0.05187078130919077 
0.01540457475194163 
0.6227894897846383 
0.05692857251881923 
0.4140956317279452 
0.01415864383085978 
-0.2258893652495594 
0.0820582114376489 
0.04580402969271308 
0.09995076869202753 
0.1633518496624538 
0.3218304381381714 
0.1633518496624538 
-3.36306606820064 
0.01046723260478645 
0.08779505792970159 
0.05661722222598135 
0.5096011539672209 
0.1089378022778405 
0.05932296627029376 
2.225917776105805 
-0.6778115613773119 
0.4663621166194259 
0.3487936401738133 
0.3487936401738133 
0.1590099815781744 
0.8557108187615002 
0.0230597605754591 
0.1501107590512097 
0.3382070663043084 
0.01951527103814439 
0.4143934557619759 
0.1029603916266396 
1.496614813980286 
0.3594777196820776 
0.1870188244939119 
0.1870188244939119 
0.1870188244939119 
0.2440619189430483 
0.3029347843889738 
0.6484356482390878 
0.1361851525701965 
0.8972292634360971 
0.2707376102119612 
0.1247711410903508 
0.0216185767110597 
0.8591815552567924 
1.083166229502925 
0.03854110459312016 
0.5461305858284405 
0.1376449974089034 
-0.2688114513391823 
0.6461646976042272 
0.04452605392386769 
0.7473365686908605 
0.01798927104645439 
0.8942426596044606 
0.1185779902523999 
0.1319316086809589 
0.5258098865124534 
0.06897276058247626 
0.7975988650493119 
-0.3494787223504399 
0.3491488906404286 
0.5979605957348659 
0.02354226506779754 
0.6280420741587232 
0.07107268768626064 
0.5055801390271688 
0.04401051687193918 
0.4787558300234581 
0.1202370021273934 
0.1156875258647392 
0.1908698911260502 
0.2840710715861459 
0.0635643451296873 
0.6915558196961092 
0.2302146880491097 
0.3788055058912644 
-4.090415217715147 
0.7491712166350903 
0.4408690390232426 
1.518272575003169 
0.03594838792514249 
0.01961208843031499 
0.384506494598128 
0.06718234878526855 
-0.002277441680264364 
0.2883729326596861 
-1.424894016166215 
0.3539023898500969 
0.03449117489349945 
0.03449117489349945 
0.03449117489349945 
-0.1611076200329347 
0.470138503346853 
0.08842878089851897 
0.1777265191361862 
0.7274740823854423 
1.04337975835278 
0.9719659138394982 
1.148438168897072 
0.005088750400475173 
0.03148043673147255 
0.4070513010030403 
1.821058257352553 
0.01141614293814631 
0.08560930304830107 
0.08560930304830107 
1.091777272569015 
1.852722427089301 
0.1653619190222634 
1.390955521943329 
0.5036560629519305 
0.08189254527532186 
-0.169418548883071 
0.08189254527532186 
0.08189254527532186 
0.004845047808137852 
0.1178130326432891 
0.03537782240068391 
0.9766264677282185 
1.23377906289192 
0.0547488715480195 
0.0547488715480195 
-0.2749363878917821 
0.519951248181968 
0.9781992263788488 
0.06339418436641349 
0.06339418436641349 
0.02754813636622319 
0.121794196096878 
0.03565807907723638 
0.0574858373958598 
0.2814950662262973 
0.02552882689782289 
0.2682631629841595 
0.3055585065246653 
-1.381142937560217 
0.008262918096570138 
0.0766991869716093 
0.6153510176957885 
0.2299075440069689 
0.3547717329903352 
0.0696086115084197 
0.3246843480717025 
0.09374248663748853 
1.598079169425485 
0.3249946938645166 
0.2340289125842811 
0.02722216220228624 
0.09182955565106868 
0.5733646908603741 
0.09182955565106868 
1.475926064126649 
0.04225120025544436 
0.02112557025162121 
0.02112557025162121 
0.5610354896037779 
0.05623698505677657 
1.112380673208192 
0.200405500961535 
0.8896309572826839 
-0.5945669253343371 
0.08144423233610618 
1.552820476678543 
0.03907309651504395 
1.447368256740993 
0.0826032283490758 
0.2486507013172593 
0.7965941127961659 
0.1521111552112963 
0.1861724980250241 
0.2149702205892481 
0.2766324117864061 
0.2149702205892481 
0.03203951041658138 
0.8013832017125099 
0.003667472018847981 
0.1102591423214939 
0.3153913326494699 
0.02576548004758322 
0.2628831832750717 
0.3089590520624889 
0.5729623787366109 
0.1465417461926803 
0.1465417461926803 
0.3089590520624889 
0.8180931232515408 
0.1082976867247125 
0.1082976867247125 
0.6808732625599129 
1.14159283590094 
0.6181727207174212 
0.6491722941752738 
0.1819028179415066 
0.2266624245351199 
1.981509933109959 
0.0371537302699169 
0.3037240690998891 
0.5253637769927992 
1.210514908029842 
0.267856000242145 
0.267856000242145 
0.1188285711994138 
1.950141820577501 
0.06810994288324292 
-0.06491522957592789 
0.197645463264775 
0.2776212927963198 
0.197645463264775 
0.3673656945372479 
0.8176432191315297 
1.288653666149034 
0.2149539277775874 
0.2667869847349572 
0.6539938965774139 
0.04893276989303073 
0.3273945906061841 
0.9197550208286006 
-1.43840355469117 
0.7879736637014967 
0.8022636457628953 
0.2646904772913889 
0.4911971660887357 
0.1861229560729063 
0.1053204841118668 
0.6070086977887239 
0.2187033891047072 
0.2187033891047072 
0.2187033891047072 
0.2154202161531363 
0.5775997915173314 
0.07196866017206603 
0.2148537273901239 
0.7786784933371237 
0.9686441400019968 
0.4184505364516928 
0.0122392768689679 
0.4765344983020361 
0.04083768846508145 
0.006991498735673438 
0.09491961713941989 
0.04298860173195864 
0.02054750982963115 
1.147927053248493 
0.05339272621374547 
0.800219591868546 
0.267856000242145 
0.267856000242145 
0.1067794285824515 
0.3720621356110655 
0.3328506550054931 
0.4487465264356472 
0.05016813209944328 
0.5794162136412998 
1.44849837652478 
0.1904248841999663 
0.4637298069911321 
0.1484498284924295 
0.8154835036270818 
0.1674221537556737 
-0.4184794824360758 
0.04460319367303903 
0.666205739894974 
0.04701934551544869 
0.5330170850404541 
0.1134910380036191 
0.2466378557936269 
0.03598673996501331 
0.3540939671940302 
2.142181209958297 
0.157308297782591 
0.9341027403023556 
0.157308297782591 
0.157308297782591 
0.07619959541664029 
0.3450758318271052 
-1.296844999526517 
0.3066486912244439 
1.966773496491882 
0.1701278160644204 
0.7692562705000205 
0.1475808797371767 
1.281127390387525 
0.4070366952696129 
0.7218178725181164 
0.4838452516417033 
0.2042592675337463 
0.1918858483135017 
0.03641058979967807 
0.03641058979967807 
0.03641058979967807 
-0.5982366757384263 
0.02909264811294131 
0.6980758061548049 
0.4668390305446524 
0.6177432537848194 
0.6696850551949421 
0.340247514584529 
0.5894714255496032 
0.1064421324292006 
0.4068360797270005 
0.261664443078824 
0.2183787381400776 
0.2184487863531998 
-0.9558438962990286 
0.6257421144732294 
0.2040964497283028 
0.9291022087621941 
0.6681932193753217 
0.19023192029783 
0.08751308450437952 
0.006301264142116856 
0.1294788906464909 
0.009050181484076648 
0.09751289527999286 
0.2756297583488775 
0.1179284737961146 
0.166975561831673 
0.4499752095627727 
0.5198054522979634 
0.1878319056166425 
0.09130272309903448 
0.9016295339488466 
1.247817694799625 
0.3844299353180975 
0.09919921622946776 
0.1645282944818358 
0.267856000242145 
0.267856000242145 
0.410480659245002 
-0.06365795949850564 
0.08286669074510923 
0.6091962373424048 
0.007191636216048176 
0.6432289287230069 
0.01715556199775674 
0.5884287000581916 
0.1884715925661521 
0.4379086030783872 
-1.569965634942109 
0.4550980393065673 
1.089066465510943 
0.1600526923336257 
0.7547863557840294 
0.1600526923336257 
0.3132263956204067 
-0.1051343176569603 
-1.435312704781078 
0.4236898846593728 
-0.3751323078958069 
0.01111693919562618 
1.237779048392182 
0.1026415753559723 
0.1421528945239238 
-0.2316403944988262 
0.8318562612998375 
0.6883755168411071 
-0.5359661783964845 
0.1699356331944969 
0.1592097511477694 
0.2613207875547974 
1.841813324264128 
-5.172295992617638 
0.002236275671579971 
0.03490879436535586 
0.05765210062352446 
0.08036367178472088 
0.08036367178472088 
3.047236017791636 
0.08036367178472088 
0.2440699031357911 
-0.1049107140943196 
0.4282454523050882 
0.2983063560945845 
0.1634744206216609 
0.02654423880261435 
0.07935762935299762 
0.04627857068699795 
0.2167033645384554 
0.02046451934869061 
0.8748035217619871 
0.5736847657033576 
0.09135500159321121 
0.03728953544839769 
0.04834281418675509 
0.203036813400993 
0.203036813400993 
0.09745969483516234 
0.006849169810715905 
0.1828065008282308 
1.043202701229184 
0.07047952632971508 
0.633235047569966 
0.1341413715106983 
0.1341413715106983 
0.3472957988479655 
-0.5065578162846288 
0.4389823620734208 
0.2057691866874679 
0.1608493533610929 
1.202448270573177 
0.1608493533610929 
0.2658389330399972 
0.8314615818421005 
0.08126464203267621 
-0.2443582427265395 
0.4711468015174574 
-0.4594160619251873 
0.7327851205305206 
0.6624548648207336 
-0.0253831356699205 
1.045158668058902 
0.1644023781182164 
0.05703546058855643 
1.783445737150102 
0.1002199027366791 
0.1002199027366791 
0.07322432906852279 
0.05703546058855643 
0.05703546058855643 
0.04122771997506394 
0.2237744339537524 
0.1192601706712529 
0.1366642215168414 
0.08734239642824512 
-0.5722489494989713 
0.01994271613567575 
0.5858827050075662 
0.7783477848498581 
0.162724155961895 
0.7929576978883532 
0.05703182107317462 
1.427997821726505 
0.7697027158247328 
-0.08857809487241791 
1.612983434582521 
0.3907815184833575 
0.04308939976938739 
0.06674867078474973 
0.04241304203465117 
-1.074416184464058 
0.3366952237536793 
0.7682202186360833 
0.1060576213086938 
0.4981724473946207 
0.766842870343755 
0.1487549681372029 
0.242197687772965 
0.1327014582778886 
0.2721462521132836 
-0.8424629454804341 
1.624284463313 
0.1160827942320596 
0.1160827942320596 
0.4885605912426191 
0.7173865616600642 
0.0110379609922449 
0.01189816042644514 
1.138732726885157 
0.06840466770011076 
0.1631099485022298 
0.007171314866488758 
0.1635830292475222 
0.335758584264159 
0.4673412141999687 
-0.2797184257032901 
0.144305129858919 
0.2436512567105602 
1.459305841022748 
1.027022248824822 
0.08138233225837163 
0.08138233225837163 
0.2853008049202063 
0.331455266591132 
-2.486213856888634 
0.06182861171876695 
0.1196052793733814 
0.5826883217834834 
0.02875896814619243 
0.01215580664586081 
1.255647071675773 
0.3708796252493541 
0.2556857209129489 
0.1250244732049225 
0.3089355792580966 
0.1250244732049225 
0.01815050145814484 
0.2180149786780881 
0.02327203556507663 
0.1897624034716518 
0.1488514905416116 
0.2450236031679994 
0.4426410423213062 
0.7364878609894407 
-0.1461468187165671 
0.4643813648268897 
0.6172542345530021 
-0.3456727085917105 
0.06888738759079162 
0.1105522888292203 
0.2724035017626339 
-0.04409201572090542 
0.007352416491663007 
0.2757878345432999 
0.3226852607441005 
0.2152037703150899 
0.4873734446826415 
0.004201065822482981 
0.5184117400834048 
0.15794459674254 
-0.141803990438632 
0.07423136332478246 
0.6592643234826793 
0.4166562409422156 
0.2083281204711078 
0.2083281204711078 
0.3317413476860145 
1.236383277230074 
0.1382169663037618 
0.08869782867311651 
1.216159013872513 
0.896301773812479 
0.4863968161367698 
0.0006614810073751387 
0.01826711018958505 
0.01395515754504802 
0.0284835526350824 
1.123478996479711 
0.7471447192405123 
0.05432371428721568 
0.3119764106692358 
0.4568236178673847 
0.1887779403665708 
0.4507091385023324 
0.07598932631950364 
-3.341697914646673 
-0.9884841664613138 
-1.184044773523856 
0.002795300588808269 
0.01609974411582486 
0.1856288553686421 
0.1856288553686421 
0.2563458944094313 
0.4035222871366174 
-0.0207254800793054 
0.08220131582181264 
0.03807021228327904 
1.213104767349874 
0.987905485029443 
0.01087048200624974 
0.0347030298232865 
0.8947188496902154 
0.03454295786183578 
0.3795133302175918 
0.078521762396506 
0.07804438342882411 
0.1894027529456322 
0.1894027529456322 
0.1894027529456322 
0.1894027529456322 
0.1076426194396154 
0.3315438606884504 
-0.1889283542709985 
0.08953478534362375 
-0.4046698960082212 
0.2453800512626018 
0.1798271820785201 
0.3997336760027508 
0.2927135585451803 
0.007126747699887787 
0.2933492821999658 
0.2509606813535289 
-0.9400840669593279 
0.2451178774970111 
0.4583416716939048 
0.6392775116612669 
0.002170150163654013 
-1.410357797336766 
0.1862888322793693 
0.1713601089573152 
0.01904917101484991 
2.073472187920839 
0.9116427769498812 
0.006131973312845785 
0.3861045002616913 
0.6159908831114905 
0.7935911917430949 
1.036092175715419 
0.4811709174109711 
0.4311633197364476 
0.02585684912840506 
0.02585684912840506 
0.2662569279735459 
-0.2331654851543891 
0.728107589631249 
0.9721800819157879 
0.2526962264975335 
0.8554952498653572 
0.4376930504746645 
0.9399218263619226 
1.765323042121719 
0.2028541616827873 
0.03284211317278225 
0.2977513870443069 
0.07443784676107672 
0.07443784676107672 
0.1119040904116459 
0.03610342183183517 
0.2140802586822928 
0.07158002562809371 
0.0627524524360154 
0.2898885375415721 
0.07560055671694416 
0.07560055671694416 
0.2597537169120181 
0.3572227427300461 
1.556463878869348 
0.1168784933356756 
0.02259651263766846 
0.02259651263766846 
0.9232544902525156 
0.5014904994975145 
0.9967762395894169 
0.7044167267694427 
0.8120001903419364 
0.35761642386346 
-2.468131385615972 
0.1143240436214953 
0.6564045979692179 
0.5319609150618236 
0.1107950788899216 
0.1107950788899216 
0.1107950788899216 
0.3313085038848337 
0.118762844106244 
0.1164624328837104 
0.1772795600283743 
0.1894027529456322 
0.1894027529456322 
0.1894027529456322 
0.1894027529456322 
0.06153602531269221 
2.061519797772187 
-0.4860755134498178 
0.1152453088729286 
0.1152453088729286 
0.2552582020859051 
0.1262313756894449 
0.0820610652987319 
0.04309633230044017 
0.4224280823910478 
0.248508983626254 
0.2069279490450269 
0.33881177179764 
0.9307786173581279 
0.1405991357919244 
0.03351409535259816 
0.03351409535259816 
0.9276760556004399 
0.4601345840923584 
0.124607436009721 
0.157312042626536 
0.672088052906232 
0.03864394041927266 
0.04755550971740379 
1.417569266807454 
-0.7167099730375895 
0.6427659069089861 
0.1231701836749861 
0.1589518168690701 
0.3648175371889817 
0.6954133597600815 
-1.160242778235818 
0.01273356213877614 
0.1771918670962898 
-0.05945948498514342 
0.2431542787973052 
0.2794099274034067 
1.492228944418238 
0.404926315603488 
0.6130224769424197 
0.08415177686314615 
-0.9590010933870394 
0.887931727722388 
-0.8455749845026762 
0.007191636216048176 
0.4096249959615568 
1.240354473011441 
0.1856362911993716 
0.01971381601602567 
0.01971381601602567 
-0.2873300195973684 
0.1227255082562874 
0.3337465116954629 
1.571244309533387 
0.5312292877981527 
0.3498623477494715 
1.085647554940945 
0.1154215731387477 
0.08486293391803294 
0.08828787864050559 
0.8090109877589188 
0.4650423821312664 
0.01319610170710539 
0.02945341428963824 
0.01284956636828337 
0.5274875440439377 
-0.5500135498592363 
0.1217221574848408 
0.01392892613994608 
-0.3829442364868352 
1.660229679803064 
0.049069314621547 
0.04306572066405655 
0.4008035547262926 
0.3722814553198062 
0.2326019367734652 
0.1685332041227133 
0.3090972937215726 
0.6851827473185244 
-0.6265664274944059 
0.304575767765535 
-0.01931096553897408 
0.4496567040134372 
0.2471214010103772 
0.7793846174847342 
0.07817826614233087 
0.006911110311848861 
0.2141749719550977 
0.4318561620487767 
0.177125307655429 
0.7080139789025354 
0.01125927541545568 
0.006596160336371349 
0.0650068703619042 
0.1300542151321236 
0.1086825058576501 
-0.5758160542947489 
0.03648444451161194 
0.1025082776882159 
0.365779017149041 
0.5803840339802273 
0.3308125128656831 
0.5229962463384979 
0.3094673252210524 
0.0115304540610647 
0.1611898933093295 
1.117896714067418 
0.1759079890208566 
1.360120292594751 
0.1070163706990506 
0.1786677388212728 
0.03871237542685395 
0.05773277577897074 
0.9389616761668956 
1.157437289013916 
0.008514652854543557 
0.0379528238197821 
0.0379528238197821 
-0.7792622446883309 
1.50815457472619 
-0.07815630297403908 
0.004283829950110633 
0.1083313215563293 
-0.06697932548892327 
0.07188721523610733 
1.773924824504609 
1.749867869812233 
0.04165351084638167 
0.03144032123662071 
0.01831787519530967 
0.01445948973046788 
0.1946016551017804 
0.05716255553497777 
0.1522244612694075 
1.151592505527161 
0.3737076231086124 
1.036383672796641 
0.224732175936476 
0.1301759506492707 
0.1301759506492707 
0.03470075690547171 
0.3656879250093109 
0.6182472057040621 
0.03470075690547171 
0.1874722973359464 
0.004440168241657156 
0.6762028297598778 
0.07531058931672163 
0.09853629802750564 
0.0002066957477586552 
-0.2937903968580698 
0.006393875653436013 
-0.6518701659385688 
0.6148923536566467 
1.073373769468758 
0.004696699346373782 
0.5765764747993292 
-0.3393049971094839 
0.01395039232513172 
0.1242696787154697 
0.4839726055003888 
1.286719483182206 
-0.1988725640770563 
-1.844548226218593 
0.5392410715778083 
0.3608112982675129 
1.172161386897207 
-1.976008942447756 
0.4571301466866296 
-0.04839993591734253 
0.01282575673205224 
0.1257094242104259 
0.01324108696445078 
0.8580882992599592 
-3.508863249993025 
0.1278741367574891 
0.1278741367574891 
0.005939472058591755 
0.05678932978327192 
0.01967254416753558 
0.01967254416753558 
0.02596052437173751 
0.7634905118201804 
0.1180768406137557 
0.2100874323576196 
0.2100874323576196 
0.3640980923452241 
0.3888094265332071 
0.5997214209868379 
0.1398875567373528 
0.1675315827832317 
0.4784845350096822 
0.2378390306189182 
0.07683315320204773 
0.9436866794311622 
0.1645540605824326 
0.05008979411888664 
1.476942759613683 
0.03015802436756029 
0.03015802436756029 
0.05734366685980303 
0.4364304900592819 
1.661733462960182 
0.006273223994583198 
0.02519758594688764 
0.05726066462070543 
0.8465974879055546 
0.003247511256324576 
0.01037393811264757 
1.365080630639842 
0.05107589281988947 
0.0727958279773525 
0.05107589281988947 
0.5430833935810571 
-0.2414704720248324 
-0.3746387809037917 
0.1952962070362009 
0.09749549946057647 
0.3278260056613159 
0.07171899991535487 
0.03697847739804194 
0.1356506872054923 
0.291226569897928 
0.3794513672417504 
0.2217539527422744 
0.4461719070470286 
0.0284460216873327 
0.0284460216873327 
0.1095121620075862 
0.1095121620075862 
0.1095121620075862 
1.204112609529711 
1.940009106666147 
0.3830119091516173 
0.2597090748394768 
0.2244895718923755 
0.9449851291666482 
0.4100826429012464 
0.6984655536171085 
1.01991981667418 
0.5097548301016324 
0.2515209624832473 
0.6291577010394306 
-0.151856414678592 
0.2893026370078268 
0.6615027439916521 
0.1941284130529304 
0.1941284130529304 
0.4261198172202503 
0.3892579152165293 
0.01613065114418064 
-0.04537889609188744 
0.03538491465948095 
0.01564379534065598 
0.07684671998227337 
0.2717430079183266 
0.5349870305316726 
0.2457949217083619 
0.6661018502869838 
0.005915023088715734 
0.03516767251483253 
-0.01533835888695217 
0.04567867149623906 
0.3725245981803613 
0.03414237280985905 
-0.1265644030712836 
0.03845164220681059 
0.2322123891655763 
0.1058405447201733 
0.2381448530505952 
0.3430565415134958 
0.1615422068542406 
0.03620620236930795 
0.03620620236930795 
0.01445698121752039 
-1.148676268825093 
0.5755343912862767 
0.1779331373413361 
0.5601139610591684 
0.246313297400839 
0.9090834614756982 
1.037240375541096 
0.1495647780282764 
0.2755335274179436 
0.5707325117739921 
0.1821782865092283 
0.1424678509011497 
0.5981569226148771 
0.2604326175266088 
0.3892624050154819 
0.03545553600645975 
0.03545553600645975 
0.266789121893084 
0.3870537699257962 
0.3788249935040589 
0.4407643049924396 
0.5206576689859411 
0.2454828792359476 
1.229815309419521 
0.6135378759285575 
0.4373954703422562 
1.348741224224322 
0.1235038980053843 
0.7226682804827025 
0.9531978683346135 
0.2879158902230712 
0.8425835425719678 
0.3279181491172255 
0.1313970630146414 
0.455427370888378 
0.4286087412981748 
-0.5397246864161093 
0.7005801415653119 
0.1604736819374623 
0.142199715293678 
0.3105239610257801 
-0.6318040380070974 
0.01366928909919464 
0.01366928909919464 
0.1269555222511025 
0.254994954765734 
0.2603386666616985 
0.03808584602289757 
1.442041077995104 
0.462086385326028 
0.02184536928349144 
0.25441248028585 
0.4343092317903884 
0.07949989682393797 
0.07949989682393797 
0.4933964873761245 
0.2167513390704947 
0.3240171207357483 
0.5657334842859987 
0.1987584572950924 
0.1987584572950924 
0.1622154227368248 
0.949408223908888 
-0.4453678167002462 
0.4877310452919172 
0.1556824421771852 
0.05086448223601443 
0.05086448223601443 
0.2896911777228608 
0.07344513624274039 
0.07344513624274039 
-0.04271456518479151 
1.152140683763042 
0.7729005767534927 
0.004474484786832906 
0.1944816961980432 
-0.003435516460631068 
0.01606927539920773 
0.6089070681370043 
0.2029616574855209 
0.2029616574855209 
0.4831100213033934 
0.01620392457926009 
0.2082765800372457 
0.1453124555115095 
0.08889916039617597 
0.5357325076201104 
0.1304991787470239 
0.3882658616495096 
0.664133212094886 
0.1304991787470239 
0.04204510135463533 
0.04204510135463533 
0.02235047492464793 
0.0009297039500996292 
0.4417209646960198 
0.7872288211455956 
0.2520729062541381 
0.06683438726792067 
0.164458279578616 
0.5486174834152101 
0.005122200213728723 
0.2552836443580083 
0.1755496059118554 
0.0928996278811072 
0.1601209035775803 
0.06173824595193583 
1.329705608121821 
-0.8323991611889161 
0.1728538069622721 
0.04103398089334238 
0.1980020635391449 
-0.0733915436578485 
0.4404533579650976 
0.1728405964455575 
0.2541114318385443 
0.06435701323209936 
0.03470234590992643 
0.09698979346241061 
1.33265645805566 
0.3004527746477632 
0.3372545895009988 
0.3074151095375662 
0.959672484836692 
0.3670111608158856 
0.3621308405406552 
0.0958082437603662 
0.0958082437603662 
0.0958082437603662 
0.5456414288274373 
0.9895403335059613 
0.2500180101981773 
0.3283477297416453 
0.4394973128333837 
0.6238122281560414 
0.08027845604873569 
0.06455408448769431 
0.001006204147489431 
0.003475899025337987 
0.761831731157923 
0.2026481822873545 
0.02116194069545193 
0.2427626845827281 
0.0941949761697984 
0.0003470225082767511 
0.01828250738680808 
0.8759399937233756 
1.435829869255035 
0.4731476717013816 
0.0156084163367898 
0.2556548417038544 
0.5076120550054299 
-0.059503931316802 
0.03548420139537053 
0.1298435262223238 
0.2465303202347231 
-0.3121543314703746 
-1.001184303709658 
0.1153149091778561 
0.1291569973379945 
0.2128673704851682 
0.1212410708410209 
1.007691565269989 
0.07859221634652232 
0.348667164898615 
